[
  {
    "step": 1,
    "n_samples": 5,
    "n_anchors": 15,
    "reward_mean_per_sample": [
      -0.7031555972778343,
      -0.77698362848402,
      -0.7293775098354867,
      -0.7259941905789132,
      -0.7367775529955506
    ],
    "reward_std_per_sample": [
      0.8053630196702385,
      0.9163791057741485,
      0.8169101423552911,
      0.7835113294551975,
      0.8862462586156397
    ],
    "reward_min_per_sample": [
      -3.132561145001693,
      -3.4979078472032477,
      -3.132243357352623,
      -3.1324755692857007,
      -3.4977719025235388
    ],
    "reward_max_per_sample": [
      -0.03692444210846929,
      -0.036883961861022954,
      -0.03690421784016213,
      -0.03691050254789584,
      -0.03690568012200529
    ],
    "reward_per_sample_anchor": [
      [
        -0.42962170065582356,
        -0.21888935174556015,
        -0.14384214827346875,
        -0.5677694768193006,
        -1.7904295363232818,
        -0.03692444210846929,
        -0.14142855879725752,
        -0.04081883411655962,
        -0.6527079008285033,
        -0.5774900506550332,
        -0.21737315902249899,
        -1.3505773863975818,
        -3.132561145001693,
        -0.3782981757187695,
        -0.868602092703714
      ],
      [
        -1.0951057350044602,
        -0.2188976150723781,
        -0.23327874155554096,
        -0.5677823573209457,
        -2.1791949448354924,
        -0.036883961861022954,
        -0.14142630606748163,
        -0.040812702775911154,
        -0.6533896605370549,
        -0.5939107489704082,
        -0.23564998900957373,
        -1.3512906270245508,
        -3.4979078472032477,
        -0.5310652363265286,
        -0.278157953695702
      ],
      [
        -0.5791291974098449,
        -0.21890344253494778,
        -0.1634474385364419,
        -0.5677733199470699,
        -1.968721047836089,
        -0.03690421784016213,
        -0.14142442967704758,
        -0.04081459641180645,
        -0.6534199550981712,
        -0.6155183006118173,
        -0.23075072608620417,
        -1.3919393890644645,
        -3.132243357352623,
        -0.4741268397373127,
        -0.7255463893882975
      ],
      [
        -0.6477478496174799,
        -0.21890221806442317,
        -0.23259578557860575,
        -0.5677756448177409,
        -1.6807016784430058,
        -0.03691050254789584,
        -0.14142949400524527,
        -0.04081788530838451,
        -0.6534526604450455,
        -0.5697713864061512,
        -0.2703904258599486,
        -1.3504586949015627,
        -3.1324755692857007,
        -0.5070967606033052,
        -0.8393863027992035
      ],
      [
        -0.5998310318192915,
        -0.2188853955854482,
        -0.14081424947418364,
        -0.5677671859426895,
        -1.9244473069671952,
        -0.03690568012200529,
        -0.14142881550956937,
        -0.04081440590800793,
        -0.6535547435571724,
        -0.5894828374986925,
        -0.2300764511630592,
        -1.3507470185518433,
        -3.4977719025235388,
        -0.5171062847069055,
        -0.5420299856036584
      ]
    ],
    "reward_spread_mean_over_anchors": 0.16709960629784076,
    "reward_spread_max_over_anchors": 0.6654840343486366,
    "anchor_spread_std": [
      0.2245762879933994,
      7.1068319505959024e-06,
      0.041671963261541975,
      5.274297749050377e-06,
      0.16910893308557734,
      1.303116597784997e-05,
      1.8803120120380025e-06,
      2.301002092243294e-06,
      0.00030367250512586985,
      0.015681275659817865,
      0.01782599010838035,
      0.01647084554400906,
      0.17901520474286686,
      0.05492665449596724,
      0.21876131433388177
    ],
    "adv_mean_per_sample": [
      0.03130209855652666,
      -0.042525932649658954,
      0.00508018599887432,
      0.00846350525544776,
      -0.0023198571611897237
    ],
    "adv_std_per_sample": [
      0.09618093953760803,
      0.16703624060284894,
      0.05214126269647569,
      0.08681865930116232,
      0.06739519060157804
    ],
    "anchor_weights": [
      1.0,
      1.0,
      1.0,
      1.0,
      1.0,
      1.0,
      1.0,
      1.0,
      1.0,
      1.0,
      1.0,
      1.0,
      1.0,
      1.0,
      1.0
    ],
    "top_anchor_indices": [
      0,
      14,
      12,
      4
    ],
    "reward_w0_per_sample_anchor": [
      [
        -0.4569287680046185,
        -0.2189134845951018,
        -0.15292574420841515,
        -0.5677723906561409,
        -1.8058296081506613,
        -0.03695230654017801,
        -0.14142581175230412,
        -0.04081642775699439,
        -0.6534353843016796,
        -0.61342424194833,
        -0.21757529078172144,
        -1.3504773656227562,
        -3.1324779935742546,
        -0.4182833874129167,
        -0.7311043104440587
      ],
      [
        -0.5683407280359377,
        -0.21891136893161958,
        -0.27754734807329096,
        -0.5677679575776172,
        -1.947148909175482,
        -0.03693055381194787,
        -0.14142469220983306,
        -0.040816057259728596,
        -0.653487035344491,
        -0.6012616156907608,
        -0.22546489665019964,
        -1.3501704343350371,
        -3.4979603449216468,
        -0.494800388887641,
        -0.7185370888900722
      ],
      [
        -0.5216245019494564,
        -0.2189055254078342,
        -0.14357329193305285,
        -0.5677734431484615,
        -1.8676311464498185,
        -0.03689852171953141,
        -0.14142980586366768,
        -0.040812009120485604,
        -0.653518295467975,
        -0.609642178211416,
        -0.2172651296315328,
        -1.3901333771241422,
        -3.132425796393127,
        -0.4194329643490758,
        -0.6353237625749686
      ],
      [
        -0.5203883272261497,
        -0.21890969475725547,
        -0.19847322874581685,
        -0.5677773222669354,
        -1.9363548477952064,
        -0.03688818866664066,
        -0.1414258284302576,
        -0.04081853261804216,
        -0.6535152806863952,
        -0.6054873260978636,
        -0.24434903434597452,
        -1.3509989670132732,
        -3.132496335261066,
        -0.4700828972462003,
        -0.6942658782833119
      ],
      [
        -0.490781323448777,
        -0.218907002789531,
        -0.1618537591988442,
        -0.5677761315743163,
        -1.9256326170572338,
        -0.036878401530976095,
        -0.14142402934547488,
        -0.04081650048952742,
        -0.653458112622167,
        -0.6048031027794719,
        -0.21535666599035574,
        -1.3510491494373076,
        -3.4979518884975467,
        -0.511624836921092,
        -0.7169066764045858
      ]
    ],
    "delta_reward_per_sample_anchor": [
      [
        0.027307067348794956,
        2.413284954164152e-05,
        0.009083595934946398,
        2.913836840368056e-06,
        0.015400071827379458,
        2.7864431708719828e-05,
        -2.7470449533995023e-06,
        -2.406359565228222e-06,
        0.0007274834731763047,
        0.03593419129329678,
        0.00020213175922245696,
        -0.00010002077482562655,
        -8.315142743819948e-05,
        0.039985211694147205,
        -0.13749778225965537
      ],
      [
        -0.5267650069685225,
        1.3753859241488753e-05,
        0.04426860651775,
        -1.439974332850813e-05,
        -0.23204603566001047,
        4.6591950924913805e-05,
        -1.6138576485746903e-06,
        3.3544838174415226e-06,
        9.737480743610138e-05,
        0.007350866720352567,
        -0.010185092359374093,
        -0.0011201926895136882,
        5.2497718399102666e-05,
        -0.03626484743888758,
        0.44037913519437016
      ],
      [
        -0.0575046954603885,
        2.082872886416398e-06,
        -0.019874146603389042,
        1.2320139153310095e-07,
        -0.1010899013862705,
        -5.6961206307201695e-06,
        5.376186620109635e-06,
        -2.587291320847729e-06,
        9.834036980382876e-05,
        -0.005876122400401362,
        -0.013485596454671372,
        -0.0018060119403222608,
        0.00018243904050407878,
        -0.05469387538823689,
        -0.09022262681332893
      ],
      [
        -0.1273595223913302,
        7.476692832297793e-06,
        -0.03412255683278889,
        1.6774491945481529e-06,
        0.2556531693522006,
        -2.231388125517597e-05,
        -3.6655749876546295e-06,
        6.473096576462001e-07,
        6.262024134973121e-05,
        0.035715939691712384,
        -0.026041391513974083,
        0.0005402721117104825,
        2.0765975365488742e-05,
        -0.03701386335710494,
        -0.14512042451589158
      ],
      [
        -0.10904970837051453,
        2.1607204082813025e-05,
        0.021039509724660566,
        8.945631626788852e-06,
        0.0011853100900385272,
        -2.7278591029196442e-05,
        -4.786164094494616e-06,
        2.094581519486438e-06,
        -9.663093500533737e-05,
        0.015320265280779455,
        -0.014719785172703448,
        0.00030213088546426903,
        0.0001799859740079235,
        -0.005481447785813498,
        0.17487669080092738
      ]
    ],
    "reward_w0_mean_per_anchor": [
      -0.5116127297329879,
      -0.21890941529626842,
      -0.18687467443188402,
      -0.5677734490446942,
      -1.8965194257256806,
      -0.03690959445385481,
      -0.14142603352030747,
      -0.040815905448955636,
      -0.6534828216845415,
      -0.6069236929455684,
      -0.22400220347995684,
      -1.3585658587065033,
      -3.278662471729528,
      -0.4628448949633851,
      -0.6992275433193995
    ],
    "delta_reward_best_per_anchor": [
      0.027307067348794956,
      2.413284954164152e-05,
      0.04426860651775,
      8.945631626788852e-06,
      0.2556531693522006,
      4.6591950924913805e-05,
      5.376186620109635e-06,
      3.3544838174415226e-06,
      0.0007274834731763047,
      0.03593419129329678,
      0.00020213175922245696,
      0.0005402721117104825,
      0.00018243904050407878,
      0.039985211694147205,
      0.44037913519437016
    ]
  },
  {
    "step": 2,
    "n_samples": 5,
    "n_anchors": 15,
    "reward_mean_per_sample": [
      -0.6985233371485199,
      -0.7309239895622729,
      -0.739744579396502,
      -0.688301923879972,
      -0.6735788805248926
    ],
    "reward_std_per_sample": [
      0.8152387597401382,
      0.8025278801345864,
      0.7961161944957208,
      0.8040009120277293,
      0.8189206965935362
    ],
    "reward_min_per_sample": [
      -3.132305066893519,
      -3.1324840550360467,
      -3.132386872278402,
      -3.132343069105524,
      -3.1324175060493475
    ],
    "reward_max_per_sample": [
      -0.04081224048143722,
      -0.03685941777599472,
      -0.04081224090318436,
      -0.03691478742939542,
      -0.04081631421951939
    ],
    "reward_per_sample_anchor": [
      [
        -0.4294305180539792,
        -0.218905991945901,
        -0.17214064118094102,
        -0.5677767075290109,
        -1.9351349847617527,
        -0.059867905613178535,
        -0.14142370406692534,
        -0.04081224048143722,
        -0.6532903792515239,
        -0.6150927547683376,
        -0.21989730441074215,
        -1.3506077301035846,
        -3.132305066893519,
        -0.5026115464421809,
        -0.43855258172478456
      ],
      [
        -0.4830960233609738,
        -0.21891073679643902,
        -0.4116723566311734,
        -0.5677744971344715,
        -1.8528736046984988,
        -0.03685941777599472,
        -0.14142740358458727,
        -0.040809947727621323,
        -0.6530385000592289,
        -0.6156697076213744,
        -0.22490456760926553,
        -1.350475028015578,
        -3.1324840550360467,
        -0.3073668051901246,
        -0.9264971921927149
      ],
      [
        -0.8536114193965785,
        -0.21888099818523066,
        -0.2151252470436809,
        -0.5677655093412166,
        -1.7994721561750195,
        -0.0598627542774674,
        -0.1414303231976354,
        -0.04081224090318436,
        -0.6535265553162823,
        -0.5711630574897506,
        -0.23575424226168415,
        -1.3504506602745592,
        -3.132386872278402,
        -0.43606326686596564,
        -0.8198633879408717
      ],
      [
        -0.5957351141252741,
        -0.21889954899587163,
        -0.19294311908860154,
        -0.5677682845021916,
        -1.7625121814794509,
        -0.03691478742939542,
        -0.14142843459055157,
        -0.04081387623275715,
        -0.653493797566187,
        -0.6142849223134452,
        -0.21797052946645817,
        -1.3505213874256867,
        -3.132343069105524,
        -0.17113283590870496,
        -0.62776696996948
      ],
      [
        -0.4490239140676309,
        -0.21890923854827707,
        -0.20089002388591434,
        -0.5677722629210736,
        -1.8907895489411979,
        -0.05984095307822658,
        -0.14142648721014361,
        -0.04081631421951939,
        -0.653527062234386,
        -0.595065255188886,
        -0.22731929156220881,
        -1.350444795319599,
        -3.1324175060493475,
        -0.3834126126232062,
        -0.19202794202377027
      ]
    ],
    "reward_spread_mean_over_anchors": 0.13256444260432457,
    "reward_spread_max_over_anchors": 0.7344692501689446,
    "anchor_spread_std": [
      0.1566775146568033,
      1.0856497488752351e-05,
      0.08766816258054735,
      4.071836379214103e-06,
      0.061822648566245815,
      0.011253022971351884,
      2.1920204854607267e-06,
      2.1067677486020805e-06,
      0.0001900512272282683,
      0.017365959105899026,
      0.006266574570902828,
      6.0280561756786656e-05,
      6.163242690127076e-05,
      0.11411644413759184,
      0.2638989830420212
    ],
    "adv_mean_per_sample": [
      0.007691204953912006,
      -0.024709447459840952,
      -0.03353003729407002,
      0.01791261822245989,
      0.032635661577539415
    ],
    "adv_std_per_sample": [
      0.07102252691314725,
      0.0952987801671191,
      0.09159533496170494,
      0.05325967197686531,
      0.1058166858041037
    ],
    "anchor_weights": [
      1.0,
      1.0,
      1.0,
      1.0,
      1.0,
      1.0,
      1.0,
      1.0,
      1.0,
      1.0,
      1.0,
      1.0,
      1.0,
      1.0,
      1.0
    ],
    "top_anchor_indices": [
      14,
      0,
      13,
      2
    ],
    "reward_w0_per_sample_anchor": [
      [
        -0.4545544646440349,
        -0.21890196710456886,
        -0.15921166976153284,
        -0.5677621405019938,
        -1.870342980629831,
        -0.0598572229357881,
        -0.14143104365035108,
        -0.04082068263419712,
        -0.6535113536126324,
        -0.6096114298916168,
        -0.22327516842873507,
        -1.3506048885372777,
        -3.132446816302717,
        -0.5066363618119571,
        -0.7768479967541251
      ],
      [
        -0.47861526988244363,
        -0.21890598163471076,
        -0.4506819037669282,
        -0.5677693443574583,
        -1.9276965584851828,
        -0.03689447676283308,
        -0.14142976166365548,
        -0.04081233513901003,
        -0.6535155636924135,
        -0.6089622084658713,
        -0.21515362922152692,
        -1.3505055145721716,
        -3.132201263518957,
        -0.4708727148385293,
        -0.6821861240295217
      ],
      [
        -0.514937377637436,
        -0.21891254844992145,
        -0.19220672003733347,
        -0.5677753898392688,
        -1.8357392251718934,
        -0.05986600619806698,
        -0.1414215034324438,
        -0.040813902762995125,
        -0.6534490028216134,
        -0.6121684098846119,
        -0.24430712754026612,
        -1.3510828306439366,
        -3.1323877759999545,
        -0.4540461156181732,
        -0.6790720269262942
      ],
      [
        -0.4876934876931892,
        -0.21891133421961878,
        -0.1728879808164547,
        -0.5677657656291245,
        -1.8325587791713769,
        -0.036884188729500174,
        -0.1414249737263517,
        -0.04081766001865376,
        -0.6534632025221544,
        -0.6079030651574131,
        -0.22109565598499295,
        -1.3505350622474719,
        -3.1323559237050596,
        -0.5000262937684395,
        -0.6861507320434952
      ],
      [
        -0.4512730974018371,
        -0.21890641311885412,
        -0.18846361097421463,
        -0.5677790960913767,
        -1.8726875460576309,
        -0.059853939800863454,
        -0.14142619959236702,
        -0.04081952490019658,
        -0.6534353632350274,
        -0.6022587553458342,
        -0.23235190336114853,
        -1.350542118973068,
        -3.1324590292475607,
        -0.47334865523682507,
        -0.5603408499957836
      ]
    ],
    "delta_reward_per_sample_anchor": [
      [
        0.02512394659005568,
        -4.02484133213421e-06,
        -0.012928971419408186,
        -1.4567027017076128e-05,
        -0.06479200413192165,
        -1.0682677390433382e-05,
        7.339583425747254e-06,
        8.442152759899346e-06,
        0.00022097436110846136,
        -0.005481324876720817,
        0.003377864017992921,
        -2.8415663069214503e-06,
        0.00014174940919797763,
        0.00402481536977628,
        0.3382954150293405
      ],
      [
        -0.004480753478530164,
        -4.755161728264845e-06,
        0.039009547135754774,
        -5.152777013184284e-06,
        0.07482295378668402,
        3.5058986838358563e-05,
        2.3580790682042885e-06,
        2.38741138870735e-06,
        0.00047706363318456013,
        -0.0067074991555030605,
        -0.009750938387738606,
        3.048655659365629e-05,
        -0.0002827915170895423,
        0.16350590964840472,
        -0.24431106816319315
      ],
      [
        -0.3386740417591425,
        3.1550264690788365e-05,
        -0.022918527006347444,
        9.880498052172726e-06,
        0.03626706899687382,
        3.2519205995784617e-06,
        -8.819765191597773e-06,
        1.6618598107642768e-06,
        -7.755249466889769e-05,
        0.04100535239486125,
        0.008552885278581973,
        0.0006321703693774605,
        9.037215527030185e-07,
        0.01798284875220757,
        -0.14079136101457745
      ],
      [
        -0.10804162643208493,
        1.1785223747146079e-05,
        -0.020055138272146833,
        -2.5188730671255044e-06,
        0.070046597691926,
        -3.059869989524566e-05,
        -3.4608641998612466e-06,
        3.7837858966049964e-06,
        -3.059504403257751e-05,
        -0.0063818571560321224,
        0.0031251265185347765,
        1.3674821785158997e-05,
        1.2854599535483402e-05,
        0.32889345785973456,
        0.05838376207401519
      ],
      [
        0.0022491833342061507,
        -2.825429422953496e-06,
        -0.012426412911699714,
        6.83317030303332e-06,
        -0.018102002883567003,
        1.2986722636873504e-05,
        -2.8761777659536136e-07,
        3.210680677191713e-06,
        -9.169899935856929e-05,
        0.007193500156948196,
        0.005032611798939712,
        9.732365346892813e-05,
        4.1523198213155865e-05,
        0.08993604261361887,
        0.3683129079720133
      ]
    ],
    "reward_w0_mean_per_anchor": [
      -0.47741473945178814,
      -0.21890764890553477,
      -0.23269037707129278,
      -0.5677703472838445,
      -1.8678050179031829,
      -0.05067116688541036,
      -0.14142669641303382,
      -0.04081682109101052,
      -0.6534748971767683,
      -0.6081807737490694,
      -0.22723669690733392,
      -1.3506540829947853,
      -3.1323701617548503,
      -0.48098602825478487,
      -0.6769195459498439
    ],
    "delta_reward_best_per_anchor": [
      0.02512394659005568,
      3.1550264690788365e-05,
      0.039009547135754774,
      9.880498052172726e-06,
      0.07482295378668402,
      3.5058986838358563e-05,
      7.339583425747254e-06,
      8.442152759899346e-06,
      0.00047706363318456013,
      0.04100535239486125,
      0.008552885278581973,
      0.0006321703693774605,
      0.00014174940919797763,
      0.32889345785973456,
      0.3683129079720133
    ]
  },
  {
    "step": 3,
    "n_samples": 5,
    "n_anchors": 15,
    "reward_mean_per_sample": [
      -0.6945352628146584,
      -0.7360805772024236,
      -0.7261477875038707,
      -0.7280638705985761,
      -0.7003187028960126
    ],
    "reward_std_per_sample": [
      0.8025580527827674,
      0.7872583889558621,
      0.7939254353324253,
      0.8124026698398579,
      0.8052655883979085
    ],
    "reward_min_per_sample": [
      -3.1324054252259357,
      -3.1323749579287754,
      -3.1326161943848785,
      -3.1323001929737493,
      -3.1324510046617378
    ],
    "reward_max_per_sample": [
      -0.04082429710070005,
      -0.040813134178831395,
      -0.036865018108809794,
      -0.03694505785516738,
      -0.03692783439142802
    ],
    "reward_per_sample_anchor": [
      [
        -0.6519174940031631,
        -0.21889443620033538,
        -0.21128664844142958,
        -0.5677750110058015,
        -1.800688935663236,
        -0.059846953332590706,
        -0.14142915257318886,
        -0.04082429710070005,
        -0.6533891890614694,
        -0.6104839747758549,
        -0.23765140125475492,
        -1.350439786835952,
        -3.1324054252259357,
        -0.4783212968874796,
        -0.2626749398579842
      ],
      [
        -0.5843553807409201,
        -0.21889383731999495,
        -0.26995701477255074,
        -0.5677626489529795,
        -1.6948555457231942,
        -0.05986050224581914,
        -0.14142758048151755,
        -0.040813134178831395,
        -0.6535727087267312,
        -0.6046937095950295,
        -0.22771365326826618,
        -1.3506096301396597,
        -3.1323749579287754,
        -0.4784822354401298,
        -1.0158361185219553
      ],
      [
        -0.9028122929561849,
        -0.21889829882609863,
        -0.18907824339596452,
        -0.5677715722768819,
        -1.7457986903291727,
        -0.036865018108809794,
        -0.14143184689610316,
        -0.040815084057473805,
        -0.653609265337858,
        -0.6083103548320198,
        -0.21887276900890792,
        -1.3504191836158193,
        -3.1326161943848785,
        -0.5142726348099521,
        -0.5706453637219346
      ],
      [
        -0.7818635557140713,
        -0.21890145368695338,
        -0.19809181966977782,
        -0.5677786951789838,
        -1.9501680920153956,
        -0.03694505785516738,
        -0.14142702244382402,
        -0.040815646606669524,
        -0.6533330638250914,
        -0.6101695395345594,
        -0.22097833390882368,
        -1.3520612673241912,
        -3.1323001929737493,
        -0.5236517490238296,
        -0.4924725692175545
      ],
      [
        -0.45230428813776946,
        -0.2188981477150368,
        -0.1508404489516444,
        -0.5677675343757473,
        -1.8356730625293531,
        -0.03692783439142802,
        -0.14142870670674074,
        -0.04081809174997444,
        -0.6535195132168663,
        -0.614547312088607,
        -0.2077922302566395,
        -1.3504958346050018,
        -3.1324510046617378,
        -0.5140703390047086,
        -0.5872461950489332
      ]
    ],
    "reward_spread_mean_over_anchors": 0.11256072946399501,
    "reward_spread_max_over_anchors": 0.7531611786639711,
    "anchor_spread_std": [
      0.1559873579067386,
      2.797842132182411e-06,
      0.03869577515679352,
      5.609622726872355e-06,
      0.08679727944868998,
      0.011238825820932514,
      1.6759719511400013e-06,
      3.8619251587341804e-06,
      0.00010638597353871223,
      0.0032033781461116707,
      0.009884191539560584,
      0.0006315370222581771,
      0.00010544379355359474,
      0.019383427341485057,
      0.2442468539927645
    ],
    "adv_mean_per_sample": [
      0.02249397738844992,
      -0.01905133699931534,
      -0.009118547300762336,
      -0.011034630395467824,
      0.016710537307095746
    ],
    "adv_std_per_sample": [
      0.08097925654002773,
      0.11691645489789897,
      0.060592584523205956,
      0.051588904125609084,
      0.057419344048113045
    ],
    "anchor_weights": [
      1.0,
      1.0,
      1.0,
      1.0,
      1.0,
      1.0,
      1.0,
      1.0,
      1.0,
      1.0,
      1.0,
      1.0,
      1.0,
      1.0,
      1.0
    ],
    "top_anchor_indices": [
      14,
      0,
      4,
      2
    ],
    "reward_w0_per_sample_anchor": [
      [
        -0.5194650718840246,
        -0.21891204978809845,
        -0.194389618388204,
        -0.5677749196564145,
        -1.9330096889377084,
        -0.05985962505192163,
        -0.14142265272186424,
        -0.04082286718708668,
        -0.653533423586887,
        -0.6051392197066116,
        -0.21782699673970232,
        -1.350718425223427,
        -3.1322205117533612,
        -0.4356660312369861,
        -1.105067013561215
      ],
      [
        -0.4302553067425016,
        -0.218910454312697,
        -0.2746849988358447,
        -0.5677730261372747,
        -1.9398030523291157,
        -0.05986087814273145,
        -0.14142503865937006,
        -0.040815071765008704,
        -0.6534777516297654,
        -0.6055974645073545,
        -0.24113486261668915,
        -1.3510361083064644,
        -3.132542819590033,
        -0.4755216027250466,
        -0.6857256060314254
      ],
      [
        -0.5241488368918028,
        -0.2189124951912024,
        -0.18751171506483746,
        -0.567772569804914,
        -1.9322196156050557,
        -0.036908250725002305,
        -0.14142269752190134,
        -0.04081355663284355,
        -0.6534208133015555,
        -0.605284976331011,
        -0.22216683687122973,
        -1.3509347960618054,
        -3.1325056895567402,
        -0.5125797518837921,
        -0.6021006164741954
      ],
      [
        -0.5097907741577287,
        -0.21891270611625063,
        -0.2812412153911992,
        -0.5677634724019869,
        -1.8826566156526905,
        -0.03693554260106865,
        -0.1414267183809842,
        -0.04081407646810446,
        -0.6535180028905303,
        -0.6049725330958278,
        -0.20695387266149812,
        -1.3503007324763634,
        -3.132289391146821,
        -0.5228797046131909,
        -0.7223924595700415
      ],
      [
        -0.4553110418069633,
        -0.21890994557718033,
        -0.14335992980196705,
        -0.5677732152751024,
        -1.8305853018160978,
        -0.03691133485529719,
        -0.14142412184443928,
        -0.04081903287748415,
        -0.6534663268684643,
        -0.6094287884402955,
        -0.2089130825589615,
        -1.3506201864268583,
        -3.132350347204585,
        -0.49077581122178454,
        -0.8002521072001716
      ]
    ],
    "delta_reward_per_sample_anchor": [
      [
        -0.13245242211913855,
        1.76135877630601e-05,
        -0.01689703005322557,
        -9.134938705468443e-08,
        0.13232075327447235,
        1.2671719330926978e-05,
        -6.499851324615058e-06,
        -1.4299136133696932e-06,
        0.00014423452541767467,
        -0.005344755069243368,
        -0.0198244045150526,
        0.0002786383874751053,
        -0.0001849134725744328,
        -0.04265526565049349,
        0.8423920737032309
      ],
      [
        -0.15410007399841846,
        1.661699270205652e-05,
        0.004727984063293944,
        1.0377184295196074e-05,
        0.24494750660592146,
        3.7589691231215694e-07,
        -2.5418221474837743e-06,
        1.937586177308548e-06,
        -9.495709696583088e-05,
        0.0009037549123249722,
        0.013421209348422974,
        0.0004264781668046336,
        0.00016786166125770663,
        -0.002960632715083178,
        -0.3301105124905299
      ],
      [
        -0.3786634560643821,
        1.4196365103774644e-05,
        -0.001566528331127054,
        9.97528032065098e-07,
        0.18642092527588305,
        4.32326161925109e-05,
        -9.149374201822269e-06,
        -1.527424630255736e-06,
        -0.00018845203630246665,
        -0.003025378501008813,
        0.003294067862321809,
        0.000515612445986191,
        -0.00011050482813823592,
        -0.0016928829261599887,
        0.0314552527522608
      ],
      [
        -0.2720727815563426,
        1.1252429297253785e-05,
        0.08314939572142135,
        -1.5222776996948184e-05,
        -0.06751147636270516,
        -9.515254098729775e-06,
        -3.040628398232048e-07,
        -1.5701385650615518e-06,
        0.00018493906543892713,
        -0.005197006438731666,
        -0.014024461247325565,
        -0.0017605348478277882,
        -1.0801826928474867e-05,
        -0.000772044410638717,
        0.229919890352487
      ],
      [
        0.00300675366919384,
        1.1797862143531068e-05,
        -0.007480519149677345,
        5.68089935504279e-06,
        -0.00508776071325534,
        -1.6499536130830383e-05,
        -4.584862301454384e-06,
        9.411275097154226e-07,
        -5.318634840201231e-05,
        -0.005118523648311557,
        0.0011208523023219785,
        0.0001243518218565498,
        -0.00010065745715293062,
        -0.023294527782924013,
        0.21300591215123843
      ]
    ],
    "reward_w0_mean_per_anchor": [
      -0.4877942062966042,
      -0.21891153019708579,
      -0.2162374954964105,
      -0.5677714406551384,
      -1.9036548548681338,
      -0.04609512627520425,
      -0.14142424582571184,
      -0.04081692098610551,
      -0.6534832636554405,
      -0.6060845964162201,
      -0.21939913028961616,
      -1.3507220496989838,
      -3.132381751850308,
      -0.4874845803361601,
      -0.7831075605674098
    ],
    "delta_reward_best_per_anchor": [
      0.00300675366919384,
      1.76135877630601e-05,
      0.08314939572142135,
      1.0377184295196074e-05,
      0.24494750660592146,
      4.32326161925109e-05,
      -3.040628398232048e-07,
      1.937586177308548e-06,
      0.00018493906543892713,
      0.0009037549123249722,
      0.013421209348422974,
      0.000515612445986191,
      0.00016786166125770663,
      -0.000772044410638717,
      0.8423920737032309
    ]
  }
]