[
  {
    "step": 1,
    "n_samples": 5,
    "n_anchors": 15,
    "reward_mean_per_sample": [
      -0.724004381604845,
      -0.6882218584881643,
      -0.7031898165104733,
      -0.7275114256215965,
      -0.6816695574508255
    ],
    "reward_std_per_sample": [
      0.7983600761288638,
      0.8080000203360916,
      0.7879906459712231,
      0.8039465262825212,
      0.8226963268972408
    ],
    "reward_min_per_sample": [
      -3.13248611670145,
      -3.132482278311874,
      -3.1325031271790396,
      -3.132609639360067,
      -3.1325531294282394
    ],
    "reward_max_per_sample": [
      -0.0369175985506886,
      -0.040817613446437674,
      -0.036903073372943504,
      -0.03690161337401766,
      -0.03693073319289746
    ],
    "reward_per_sample_anchor": [
      [
        -0.7222651944156908,
        -0.2189215079200909,
        -0.17216782012603993,
        -0.5677595357523171,
        -1.7862692985168798,
        -0.0369175985506886,
        -0.14142847605542885,
        -0.04082117040877804,
        -0.6535178061377207,
        -0.6053868894536271,
        -0.2200970179539264,
        -1.3505763274894027,
        -3.13248611670145,
        -0.41119034627308293,
        -0.8002606183175522
      ],
      [
        -0.4327698685671659,
        -0.2189022172580632,
        -0.17837157473142579,
        -0.5677790059267153,
        -1.8184476299685817,
        -0.059836850595900756,
        -0.1414286668865469,
        -0.040817613446437674,
        -0.6532517175692396,
        -0.6145230306598326,
        -0.2345222188948216,
        -1.3505887387438318,
        -3.132482278311874,
        -0.2235433313666839,
        -0.656063134395344
      ],
      [
        -0.6637588313216967,
        -0.21889918349853293,
        -0.20353565033096088,
        -0.5677689178915024,
        -1.5818373871821543,
        -0.036903073372943504,
        -0.14142364666018165,
        -0.04082274674546179,
        -0.6535414162755057,
        -0.5668739562120936,
        -0.23479056433211457,
        -1.350927679803783,
        -3.1325031271790396,
        -0.22625421549262623,
        -0.928006851358501
      ],
      [
        -0.6298207943312613,
        -0.2189059261670631,
        -0.22595296468307244,
        -0.5677706863814758,
        -1.8667861562458288,
        -0.03690161337401766,
        -0.14142590460962398,
        -0.040815067638202404,
        -0.6533204643696556,
        -0.57284600543493,
        -0.23468237467243896,
        -1.3515601569515687,
        -3.132609639360067,
        -0.40727152272368666,
        -0.8320021073810554
      ],
      [
        -0.6496904089793849,
        -0.2189210659923993,
        -0.15708506348873946,
        -0.5677640856676822,
        -1.9116203141631252,
        -0.03693073319289746,
        -0.1414295552885159,
        -0.040810852184992745,
        -0.6536339832843165,
        -0.6089403643942947,
        -0.22297178940592208,
        -1.351058233372653,
        -3.1325531294282394,
        -0.28622307865320273,
        -0.24541070426601666
      ]
    ],
    "reward_spread_mean_over_anchors": 0.10968134853871454,
    "reward_spread_max_over_anchors": 0.6825961470924844,
    "anchor_spread_std": [
      0.09839260264035844,
      9.47681736392367e-06,
      0.024409895053297423,
      6.559863628850903e-06,
      0.11383998308474762,
      0.009169444535226752,
      2.1734427806293887e-06,
      4.269015000196425e-06,
      0.00014342419785643294,
      0.01978370756738333,
      0.006497158463292451,
      0.0003617576325562501,
      4.848359594866841e-05,
      0.08336746454475424,
      0.2398970758103474
    ],
    "adv_mean_per_sample": [
      -0.01908497366966409,
      0.01669754944701666,
      0.0017295914247077904,
      -0.022592017686415552,
      0.023249850484355485
    ],
    "adv_std_per_sample": [
      0.04265362761188938,
      0.05242067104317824,
      0.08571862216352613,
      0.04370612080446253,
      0.11788214629725918
    ],
    "anchor_weights": [
      1.0,
      1.0,
      1.0,
      1.0,
      1.0,
      1.0,
      1.0,
      1.0,
      1.0,
      1.0,
      1.0,
      1.0,
      1.0,
      1.0,
      1.0
    ],
    "top_anchor_indices": [
      14,
      4,
      0,
      13
    ]
  },
  {
    "step": 2,
    "n_samples": 5,
    "n_anchors": 15,
    "reward_mean_per_sample": [
      -0.717321706706941,
      -0.690033528279239,
      -0.6894466419048839,
      -0.7273851782932248,
      -0.7093785631337347
    ],
    "reward_std_per_sample": [
      0.7942957347675325,
      0.8134061164759032,
      0.7959595120272662,
      0.8750661427551532,
      0.7783714628764373
    ],
    "reward_min_per_sample": [
      -3.1324349129381996,
      -3.132428743244226,
      -3.132437214934363,
      -3.4979645467947025,
      -3.1324742793231435
    ],
    "reward_max_per_sample": [
      -0.036943721503773105,
      -0.03691818234574401,
      -0.036844815718187145,
      -0.03690923900399616,
      -0.04081410140058942
    ],
    "reward_per_sample_anchor": [
      [
        -0.6607586220432549,
        -0.21891040235634984,
        -0.19294287326777415,
        -0.5677716230271102,
        -1.7899470221232576,
        -0.036943721503773105,
        -0.14142594022113966,
        -0.04081363937693167,
        -0.6521837751904922,
        -0.6060514761487265,
        -0.26719950964842426,
        -1.3506698183410633,
        -3.1324349129381996,
        -0.5100296228498358,
        -0.5917426415677817
      ],
      [
        -0.71951344010338,
        -0.21889918638205247,
        -0.1504273821481207,
        -0.5677665386774704,
        -1.8487188872362046,
        -0.03691818234574401,
        -0.14143054222047785,
        -0.04081859676290646,
        -0.6524964109409273,
        -0.6152796026462907,
        -0.27777009552438814,
        -1.350598271333952,
        -3.132428743244226,
        -0.3963709053472176,
        -0.20106613927522643
      ],
      [
        -0.38369370722745644,
        -0.21891485074922695,
        -0.3022675407659809,
        -0.5677812779411611,
        -1.7401554503606862,
        -0.036844815718187145,
        -0.14142892977354907,
        -0.04082093647530791,
        -0.653390373181334,
        -0.6148981440186151,
        -0.2389235893678545,
        -1.3505426830733445,
        -3.132437214934363,
        -0.29823491289743564,
        -0.6213652020887577
      ],
      [
        -0.604851139896462,
        -0.2188996650223376,
        -0.19540266679164722,
        -0.5677800356738438,
        -1.7908777430675047,
        -0.03690923900399616,
        -0.14142984358576652,
        -0.040819054242797914,
        -0.6531185017644183,
        -0.6060064621193794,
        -0.2579935637021142,
        -1.3507918740168743,
        -3.4979645467947025,
        -0.31936199699300494,
        -0.6285713417235204
      ],
      [
        -0.6545884127557335,
        -0.2188865799543656,
        -0.15083945887802658,
        -0.5677685112705987,
        -1.5700028173101006,
        -0.059688539697176246,
        -0.1414256585592342,
        -0.04081410140058942,
        -0.6531099285161707,
        -0.612809503568409,
        -0.2156247908430749,
        -1.3503929565033914,
        -3.1324742793231435,
        -0.5122321862812871,
        -0.7600207221447203
      ]
    ],
    "reward_spread_mean_over_anchors": 0.13338576644889463,
    "reward_spread_max_over_anchors": 0.5589545828694938,
    "anchor_spread_std": [
      0.1163248480390971,
      9.867056538246934e-06,
      0.055480815630145876,
      6.00057508787884e-06,
      0.09538014887378898,
      0.009113878275492612,
      2.0141497064215514e-06,
      2.8847258069400087e-06,
      0.0004472269959579639,
      0.004152294046326006,
      0.022017972664984595,
      0.00013254553987698933,
      0.14620830454800873,
      0.09089758546355513,
      0.18884680970880344
    ],
    "adv_mean_per_sample": [
      -0.010608583043336272,
      0.016679595384365704,
      0.017266481758720673,
      -0.020672054629619976,
      -0.0026654394701300993
    ],
    "adv_std_per_sample": [
      0.0369010105444408,
      0.10227197572833104,
      0.07133915314768065,
      0.07890415534384464,
      0.07919496095620115
    ],
    "anchor_weights": [
      1.0,
      1.0,
      1.0,
      1.0,
      1.0,
      1.0,
      1.0,
      1.0,
      1.0,
      1.0,
      1.0,
      1.0,
      1.0,
      1.0,
      1.0
    ],
    "top_anchor_indices": [
      14,
      12,
      0,
      4
    ]
  }
]