[
  {
    "step": 1,
    "n_samples": 5,
    "n_anchors": 20,
    "reward_mean_per_sample": [
      -0.5495744433569817,
      -0.5694601478462811,
      -0.5574821040395628,
      -0.5625486547441538,
      -0.5661667882772373
    ],
    "reward_std_per_sample": [
      0.5890277506960518,
      0.5884543516964275,
      0.6214682460348105,
      0.6120561374376962,
      0.5998362301821276
    ],
    "reward_min_per_sample": [
      -2.3745857459846387,
      -2.4598549715413656,
      -2.5662209137888734,
      -2.516501353521333,
      -2.5020545177932045
    ],
    "reward_max_per_sample": [
      0.11122475010316993,
      0.03566786643200002,
      0.1444775341883212,
      0.13672951368746236,
      0.0436307498632192
    ],
    "reward_per_sample_anchor": [
      [
        -0.5856148692718626,
        0.03567729368858935,
        -0.6657170458720085,
        -0.218906256620288,
        -0.2150251852040978,
        -0.17624767515270123,
        -0.7914154997462395,
        -0.3358485374018224,
        -1.398081517787329,
        0.11122475010316993,
        -0.5296005103393165,
        -0.17737127007985792,
        -0.871753328346724,
        -1.3512914207470244,
        -0.048418351854764174,
        0.04952212621237018,
        -0.2002868418389089,
        -0.6470723148792783,
        -2.3745857459846387,
        -0.6006766660168996
      ],
      [
        -0.5855082863814015,
        0.03566786643200002,
        -0.665689325715191,
        -0.21890525508320532,
        -0.21503593097523163,
        -0.17625539313864313,
        -0.7902638188608965,
        -0.3359387159004362,
        -1.3981467387801878,
        -0.13055804749094227,
        -0.5295966131980941,
        -0.17738790106362512,
        -0.872710578292286,
        -1.350243212230988,
        -0.025512471074967666,
        0.0005652755298278869,
        -0.24430287046769225,
        -0.6468674688148541,
        -2.4598549715413656,
        -0.6026584998774409
      ],
      [
        -0.5854600653916139,
        0.03592191253423953,
        -0.6657424211637442,
        -0.21891483978491266,
        -0.21502709905046619,
        -0.17624064200319947,
        -0.7914099031874442,
        -0.3349130805300641,
        -1.3982634445061422,
        0.049456064206783265,
        -0.5295908844651102,
        -0.1774175343168388,
        -0.8715201088479847,
        -1.350757401344659,
        -0.03258410381457211,
        0.1444775341883212,
        -0.2160512467426793,
        -0.6469494580971572,
        -2.5662209137888734,
        -0.6024344446851396
      ],
      [
        -0.585468659099659,
        0.03544838163646768,
        -0.6657482326734152,
        -0.21890885369415855,
        -0.21501842170580726,
        -0.17625432483215148,
        -0.7917955240706345,
        -0.3358541938963303,
        -1.3981538530101352,
        -0.0015775446380731362,
        -0.5296035222013704,
        -0.17743628940004913,
        -0.8726266108366314,
        -1.391910248355831,
        -0.03311892581049797,
        0.13672951368746236,
        -0.26388125917523797,
        -0.6470405284001663,
        -2.516501353521333,
        -0.6022526448855262
      ],
      [
        -0.5855563889100148,
        0.03575947870216837,
        -0.665823851522668,
        -0.21891993281048822,
        -0.21503545597540438,
        -0.17626431110805346,
        -0.7902422370640931,
        -0.33542319874628,
        -1.3981267655351337,
        0.0436307498632192,
        -0.5296000149986364,
        -0.17738573026637422,
        -0.8725514887143824,
        -1.3503498814405874,
        -0.018846457553638563,
        -0.07926542932121183,
        -0.23943995519712197,
        -0.6470426536456649,
        -2.5020545177932045,
        -0.6007977235071762
      ]
    ],
    "reward_spread_mean_over_anchors": 0.03995143244393407,
    "reward_spread_max_over_anchors": 0.2417827975941122,
    "adv_mean_per_sample": [
      0.011471984295861774,
      -0.008413720193437687,
      0.003564323613280519,
      -0.0015022270913105193,
      -0.005120360624393955
    ],
    "adv_std_per_sample": [
      0.03167812755845596,
      0.03384844810992222,
      0.029117924054388636,
      0.02322524602191063,
      0.029798126801188905
    ],
    "anchor_spread_std": [
      5.775103506265788e-05,
      0.00015330829171175924,
      4.4971819061487315e-05,
      5.5613953610992446e-06,
      6.604458914015619e-06,
      7.938375751599617e-06,
      0.0006459816735635459,
      0.0003857801596129043,
      6.00419152721498e-05,
      0.08090303811303173,
      4.311223888611154e-06,
      2.366206091231523e-05,
      0.0004945184732934915,
      0.01650401675509982,
      0.009856949516260049,
      0.08438099453134235,
      0.02227139694337711,
      7.570764360474624e-05,
      0.06433804656394283,
      0.0008490448023543499
    ],
    "anchor_weights": [
      1.0,
      1.0,
      1.0,
      1.0,
      1.0,
      1.0,
      1.0,
      1.0,
      1.0,
      1.0,
      1.0,
      1.0,
      1.0,
      1.0,
      1.0,
      1.0,
      1.0,
      1.0,
      1.0,
      1.0
    ]
  },
  {
    "step": 2,
    "n_samples": 5,
    "n_anchors": 20,
    "reward_mean_per_sample": [
      -0.5738803177484111,
      -0.5599556677796639,
      -0.5539078756156,
      -0.5574441687055411,
      -0.5551333359940763
    ],
    "reward_std_per_sample": [
      0.5865331170113349,
      0.6105962951331743,
      0.5904548665991851,
      0.5988682351041493,
      0.6293012694092172
    ],
    "reward_min_per_sample": [
      -2.4434230449328007,
      -2.525364507951046,
      -2.3997255853750703,
      -2.461421455673053,
      -2.5889235085663835
    ],
    "reward_max_per_sample": [
      0.12698765607465112,
      0.116456639525441,
      0.10115444607374527,
      0.08013099834229857,
      0.18317823500683178
    ],
    "reward_per_sample_anchor": [
      [
        -0.5854623795035367,
        0.03589191481742998,
        -0.6658195245068138,
        -0.21888978713532886,
        -0.21503553172726364,
        -0.1762287411969349,
        -0.7914496739712524,
        -0.3353425522593597,
        -1.3983056916389605,
        0.12698765607465112,
        -0.5296077490508894,
        -0.1774372510556938,
        -0.8718323855511754,
        -1.350565781758395,
        -0.02287713703666977,
        -0.38142100424481234,
        -0.22901818034656896,
        -0.6469019113290135,
        -2.4434230449328007,
        -0.6008675986148341
      ],
      [
        -0.5854751014317966,
        0.035328364898675316,
        -0.6656249998649154,
        -0.218907479337775,
        -0.2150336470181024,
        -0.1762981837037689,
        -0.7902470100994687,
        -0.33595148591783913,
        -1.3980972597394343,
        0.001654139637824582,
        -0.5296109312187829,
        -0.1773770200706193,
        -0.8717972841285286,
        -1.3509487028427127,
        -0.03004244919176952,
        0.116456639525441,
        -0.2340926993011423,
        -0.6470136880203321,
        -2.525364507951046,
        -0.6006700498171862
      ],
      [
        -0.5854721990118128,
        0.035280887860255614,
        -0.6657732279803046,
        -0.2189149091633997,
        -0.21503572258857828,
        -0.17623250920644382,
        -0.7918363645604953,
        -0.335257856331859,
        -1.3981237652607301,
        0.10115444607374527,
        -0.5295908907174978,
        -0.17742302329226783,
        -0.8714684216552675,
        -1.3516388756625606,
        -0.0301888227331583,
        0.01073516305290545,
        -0.2291807796537804,
        -0.6469724400891129,
        -2.3997255853750703,
        -0.6024926160165663
      ],
      [
        -0.5854374086995372,
        0.03565060127690748,
        -0.6657578451082624,
        -0.21891743836675717,
        -0.21503592066503996,
        -0.17626717861502927,
        -0.791381008179925,
        -0.335229100223429,
        -1.398273690943683,
        -0.00973881299774039,
        -0.529601639139821,
        -0.1774071421870111,
        -0.8727056163028417,
        -1.350750837434507,
        0.08013099834229857,
        -0.03579528535309298,
        -0.19307309841417902,
        -0.6471629606113236,
        -2.461421455673053,
        -0.6007085348147941
      ],
      [
        -0.5854753639472756,
        0.0357359454365216,
        -0.6656792935249328,
        -0.21890920650331544,
        -0.21503469434127745,
        -0.1762580919008755,
        -0.7919821507655782,
        -0.3361573326559963,
        -1.3980548535869675,
        0.09366028063903759,
        -0.5296031282000524,
        -0.17741611614851818,
        -0.8723898563090041,
        -1.3505217031107668,
        -0.027396779776347288,
        0.18317823500683178,
        -0.23367400354931428,
        -0.6468883535095129,
        -2.5889235085663835,
        -0.6008767445678005
      ]
    ],
    "reward_spread_mean_over_anchors": 0.05251259754236841,
    "reward_spread_max_over_anchors": 0.5645992392516441,
    "adv_mean_per_sample": [
      -0.01381604457975259,
      0.00010860538899457178,
      0.006156397553058565,
      0.0026201044631174787,
      0.004930937174582137
    ],
    "adv_std_per_sample": [
      0.08120492353807669,
      0.03545392386412644,
      0.021708680078484834,
      0.026646678793582592,
      0.05192262455315052
    ],
    "anchor_spread_std": [
      1.4339631138838641e-05,
      0.00023636940640926112,
      6.964199349512587e-05,
      9.695114686394793e-06,
      8.394233817191512e-07,
      2.5295198665898786e-05,
      0.0006098151971655143,
      0.00038840947741964477,
      9.984587098212409e-05,
      0.05575689256057951,
      6.839199542509367e-06,
      2.011568623630177e-05,
      0.00044590419885769285,
      0.00040602239198326645,
      0.043184069561489014,
      0.19581201138558693,
      0.015516184978177186,
      9.88471542247164e-05,
      0.0662995645366622,
      0.0006897339830653423
    ],
    "anchor_weights": [
      1.0,
      1.0,
      1.0,
      1.0,
      1.0,
      1.0,
      1.0,
      1.0,
      1.0,
      1.0,
      1.0,
      1.0,
      1.0,
      1.0,
      1.0,
      1.0,
      1.0,
      1.0,
      1.0,
      1.0
    ]
  },
  {
    "step": 3,
    "n_samples": 5,
    "n_anchors": 20,
    "reward_mean_per_sample": [
      -0.5631684236950317,
      -0.5575581914254911,
      -0.5624839821435378,
      -0.5665044263083872,
      -0.5650815651553127
    ],
    "reward_std_per_sample": [
      0.5876279253635616,
      0.6051423736251521,
      0.5959527151084353,
      0.6004460174588783,
      0.6065437918173002
    ],
    "reward_min_per_sample": [
      -2.432231814709629,
      -2.4841502026890785,
      -2.4678538622951502,
      -2.5025277880691434,
      -2.527424072306874
    ],
    "reward_max_per_sample": [
      0.035515274851718466,
      0.10750192922584402,
      0.07772390779711054,
      0.08202729390252202,
      0.05460766494236006
    ],
    "reward_per_sample_anchor": [
      [
        -0.5854638070997946,
        0.035515274851718466,
        -0.6657503003169293,
        -0.21891742807987905,
        -0.215036161366514,
        -0.17630366502970043,
        -0.7914081598412099,
        -0.3359713801232119,
        -1.3981604767334377,
        -0.03889258164639102,
        -0.5295979665347094,
        -0.17739190230470428,
        -0.8718085491030473,
        -1.350642885604573,
        -0.05618186628522476,
        0.008404923372520287,
        -0.2158234456764423,
        -0.6469060747617221,
        -2.432231814709629,
        -0.6008002069077558
      ],
      [
        -0.5854625847219361,
        0.035505515858613085,
        -0.6657135776476066,
        -0.21890878266879918,
        -0.21503360702090302,
        -0.17624230373938926,
        -0.7914248024217808,
        -0.3361153639314435,
        -1.398047643955253,
        0.0029667612444679407,
        -0.5296193772063751,
        -0.17742399940122863,
        -0.8716502442117476,
        -1.3505146104891275,
        0.10750192922584402,
        0.025875372788276174,
        -0.2732926234741843,
        -0.6470442707384243,
        -2.4841502026890785,
        -0.6023694133097454
      ],
      [
        -0.5854632546350608,
        0.03542644274644711,
        -0.6657338081083777,
        -0.21888150815871776,
        -0.21503503452652065,
        -0.17625074248157108,
        -0.791372788442343,
        -0.33610945728996944,
        -1.3981055100298296,
        0.07772390779711054,
        -0.529603736223208,
        -0.17742891599859176,
        -0.8708968603419724,
        -1.3504321654963385,
        -0.026582394098717124,
        -0.09772706634388229,
        -0.2059746762130873,
        -0.6469568435217121,
        -2.4678538622951502,
        -0.6024213692092647
      ],
      [
        -0.5854768292958932,
        0.035723540206204274,
        -0.6657276956840674,
        -0.2189159260702564,
        -0.215019157063706,
        -0.17622305199624105,
        -0.7914000041708926,
        -0.3356666338018126,
        -1.3981616298832187,
        -0.020369954626005694,
        -0.529598281196334,
        -0.1773969919773165,
        -0.8712841071937575,
        -1.3504597496568869,
        -0.09915429871774761,
        0.08202729390252202,
        -0.26273070452697567,
        -0.6469606581794958,
        -2.5025277880691434,
        -0.6007658981667194
      ],
      [
        -0.5854720333596886,
        0.0358591016757657,
        -0.6657405212822414,
        -0.21886424939440752,
        -0.21503521204763165,
        -0.17627882751164753,
        -0.7913102446288638,
        -0.33539448145798656,
        -1.3981620321649375,
        0.052320351220487435,
        -0.5296099315918392,
        -0.17742148184026124,
        -0.8726894073788989,
        -1.3503340575324352,
        -0.1273125290286029,
        0.05460766494236006,
        -0.2241749918268987,
        -0.6468548004623491,
        -2.527424072306874,
        -0.6023395471293055
      ]
    ],
    "reward_spread_mean_over_anchors": 0.03496422521331642,
    "reward_spread_max_over_anchors": 0.2348144582544469,
    "adv_mean_per_sample": [
      -0.00020910594947969526,
      0.005401126320061074,
      0.0004753356020143068,
      -0.003545108562835057,
      -0.0021222474097606593
    ],
    "adv_std_per_sample": [
      0.017537831387112984,
      0.03384078922080963,
      0.029939787811334165,
      0.0224321533018366,
      0.025121100653904015
    ],
    "anchor_spread_std": [
      5.713213530266422e-06,
      0.00016027793219672542,
      1.2342804669896124e-05,
      2.1096244698942836e-05,
      6.391071785889772e-06,
      2.837156002098348e-05,
      4.0167205631142746e-05,
      0.0002805633026452516,
      4.539894794735548e-05,
      0.043879441308663905,
      8.04423029193842e-06,
      1.5146175824013266e-05,
      0.0006008908295971625,
      0.00010165861484320803,
      0.08163432470964246,
      0.061530364818552175,
      0.02665677176765313,
      6.307162780392741e-05,
      0.032133589420538254,
      0.0007812764900683046
    ],
    "anchor_weights": [
      1.0,
      1.0,
      1.0,
      1.0,
      1.0,
      1.0,
      1.0,
      1.0,
      1.0,
      1.0,
      1.0,
      1.0,
      1.0,
      1.0,
      1.0,
      1.0,
      1.0,
      1.0,
      1.0,
      1.0
    ]
  },
  {
    "step": 4,
    "n_samples": 5,
    "n_anchors": 20,
    "reward_mean_per_sample": [
      -0.5618690961436353,
      -0.56240185205896,
      -0.5634422997258448,
      -0.5809244143723205,
      -0.5695426169502851
    ],
    "reward_std_per_sample": [
      0.6057761920718749,
      0.6138201425020907,
      0.5901294047219874,
      0.6025374869717012,
      0.579432337339868
    ],
    "reward_min_per_sample": [
      -2.5138605247740524,
      -2.542606223441998,
      -2.4446508673461915,
      -2.548317156457487,
      -2.411120591513525
    ],
    "reward_max_per_sample": [
      0.03985632633828412,
      0.21395753133812836,
      0.048591583040832935,
      0.10199804670713056,
      0.04143904297297833
    ],
    "reward_per_sample_anchor": [
      [
        -0.5854332561692173,
        0.03539591434546088,
        -0.6656885876812741,
        -0.21892682294014462,
        -0.2150291775113518,
        -0.17626569744123666,
        -0.790671336203865,
        -0.33514232613158323,
        -1.3981275276608005,
        0.0029374088055895103,
        -0.5296006604979626,
        -0.17739729523501063,
        -0.8724240057852622,
        -1.35101970316294,
        -0.01874444740775609,
        0.03985632633828412,
        -0.21794084422396914,
        -0.6468824067750021,
        -2.5138605247740524,
        -0.6024169527606122
      ],
      [
        -0.58549409785574,
        0.03560239710276258,
        -0.6657409260471108,
        -0.21889684425537942,
        -0.21502749005517136,
        -0.1762011858324875,
        -0.7919094268056289,
        -0.3351538977285892,
        -1.3980428761230455,
        0.21395753133812836,
        -0.5296055287100337,
        -0.17739735954028954,
        -0.871649434015604,
        -1.350604457994749,
        -0.043869662400348994,
        -0.12440298220016854,
        -0.22098059655990726,
        -0.6471941037149986,
        -2.542606223441998,
        -0.6028198763388404
      ],
      [
        -0.5854576444926873,
        0.035793449246267636,
        -0.665736581895604,
        -0.21890423146858512,
        -0.21501251920604045,
        -0.1761879810745311,
        -0.7902176290817128,
        -0.3357817442203934,
        -1.39828107652116,
        0.048591583040832935,
        -0.5295903900653968,
        -0.17743705655534311,
        -0.8726407059495956,
        -1.3504238597576617,
        -0.03950071143225563,
        -0.1040419174062221,
        -0.20004804378544422,
        -0.6470141969009526,
        -2.4446508673461915,
        -0.6023038696442198
      ],
      [
        -0.5854543899153092,
        0.035393696636387945,
        -0.6657376208430827,
        -0.21891102179390975,
        -0.21502327300312382,
        -0.1762844119367973,
        -0.7914175761284633,
        -0.3355412370897909,
        -1.398106141179222,
        -0.0010441582951653127,
        -0.5295972844740993,
        -0.17743537952584834,
        -0.8720009515689703,
        -1.3505841376695136,
        0.10199804670713056,
        -0.4116980104531197,
        -0.22919872296903462,
        -0.6468912428674247,
        -2.548317156457487,
        -0.6026373146195647
      ],
      [
        -0.5855122648336598,
        0.0358378336672035,
        -0.6657467343277061,
        -0.21892051841099625,
        -0.2150114044701964,
        -0.17622197861615688,
        -0.7908131620213599,
        -0.33485045692171356,
        -1.398048421279802,
        0.04143904297297833,
        -0.5295956119664209,
        -0.17742830689303565,
        -0.8726817607302126,
        -1.3503401196749532,
        -0.045475892324222215,
        -0.255800619104086,
        -0.1910238404908411,
        -0.647094005666696,
        -2.411120591513525,
        -0.6024435264002992
      ]
    ],
    "reward_spread_mean_over_anchors": 0.04977913435154875,
    "reward_spread_max_over_anchors": 0.45155433679140383,
    "adv_mean_per_sample": [
      0.0057669597065738406,
      0.0052342037912491675,
      0.00419375612436432,
      -0.01328835852211124,
      -0.0019065611000758961
    ],
    "adv_std_per_sample": [
      0.0489295901628206,
      0.03796584503864218,
      0.01953825177212745,
      0.06081877233957515,
      0.028094723926056706
    ],
    "anchor_spread_std": [
      2.868072022477024e-05,
      0.00018873089219659172,
      2.1051148792134703e-05,
      1.0800217306504002e-05,
      7.455187752837169e-06,
      3.706702189923258e-05,
      0.0005926701947296236,
      0.000328141631424567,
      8.632343927550233e-05,
      0.07893439420569572,
      5.056293807830012e-06,
      1.800178321522412e-05,
      0.0003969225732484556,
      0.0002344490143162789,
      0.05637752717513667,
      0.1524739309415742,
      0.014102898881164793,
      0.000119345958862894,
      0.05476102975725449,
      0.00018263352483243765
    ],
    "anchor_weights": [
      1.0,
      1.0,
      1.0,
      1.0,
      1.0,
      1.0,
      1.0,
      1.0,
      1.0,
      1.0,
      1.0,
      1.0,
      1.0,
      1.0,
      1.0,
      1.0,
      1.0,
      1.0,
      1.0,
      1.0
    ]
  }
]