[
  {
    "step": 1,
    "n_samples": 5,
    "n_anchors": 20,
    "reward_mean_per_sample": [
      -0.5409603444437084,
      -0.5492372484619283,
      -0.5745454959905786,
      -0.5458239170278507,
      -0.5615392833476358
    ],
    "reward_std_per_sample": [
      0.6152954329058105,
      0.624563717470675,
      0.5974324167087329,
      0.600372775461838,
      0.5997656570437877
    ],
    "reward_min_per_sample": [
      -2.458019154653348,
      -2.542008846235541,
      -2.5226600215902755,
      -2.4090867146662314,
      -2.484575036086484
    ],
    "reward_max_per_sample": [
      0.17717090750602843,
      0.18703652779192803,
      0.040860356851406376,
      0.17365972547116784,
      0.05336357144630081
    ],
    "reward_per_sample_anchor": [
      [
        -0.5854485562726427,
        0.03569908480384649,
        -0.6656973990839683,
        -0.218913935134323,
        -0.21501693292746948,
        -0.17627019495348867,
        -0.7913336266516415,
        -0.3360271668252926,
        -1.3981732514620508,
        0.10019299935237165,
        -0.5296070722240402,
        -0.1774317651876538,
        -0.8712669376297257,
        -1.3508744671150568,
        0.10635088032950366,
        0.17717090750602843,
        -0.21537981111717713,
        -0.6468914704769495,
        -2.458019154653348,
        -0.6022690191510902
      ],
      [
        -0.5854695733686087,
        0.03577466718304189,
        -0.6657243177561627,
        -0.21891045044583946,
        -0.21502141422846754,
        -0.17620958325261832,
        -0.7914071223055701,
        -0.33533972372071896,
        -1.3982505779627028,
        0.1074714794555884,
        -0.5295836624968462,
        -0.17740263802643036,
        -0.8717948780209983,
        -1.3503219141697818,
        -0.0007978966710700634,
        0.18703652779192803,
        -0.20699550092110675,
        -0.6471822313432251,
        -2.542008846235541,
        -0.6026073127434374
      ],
      [
        -0.5854461981340501,
        0.0355699504073087,
        -0.6657529486101963,
        -0.2188846757986619,
        -0.21503640572544896,
        -0.1762327090032515,
        -0.7913827434537297,
        -0.33615097149525697,
        -1.398043717603104,
        0.040860356851406376,
        -0.5295991503655708,
        -0.17741010192489987,
        -0.8715251141230207,
        -1.3503742018578218,
        -0.056940145512671264,
        -0.21181175864136093,
        -0.2109433525706823,
        -0.6471096557003415,
        -2.5226600215902755,
        -0.6020363549599428
      ],
      [
        -0.5854963187893549,
        0.035427697518137014,
        -0.6657264699772991,
        -0.2188927200365664,
        -0.21502429426929048,
        -0.17623314056834072,
        -0.7902809193405472,
        -0.33534469335568373,
        -1.3982217892530595,
        0.0669583241362262,
        -0.5295903714458002,
        -0.17743715011739952,
        -0.8716782363697241,
        -1.3513372261629435,
        -0.00604964725870054,
        0.17365972547116784,
        -0.2128100373920932,
        -0.6469825863119777,
        -2.4090867146662314,
        -0.6023317723675301
      ],
      [
        -0.5854890974673235,
        0.03577555343463086,
        -0.6657374586457732,
        -0.21891078732626046,
        -0.21501162383651182,
        -0.1762654451847582,
        -0.7902543659276253,
        -0.33581093408478696,
        -1.398247442784959,
        -0.031018413466880133,
        -0.529597737329253,
        -0.17742828700598473,
        -0.8717769227690016,
        -1.3504418574978905,
        -0.034355194127097685,
        0.05336357144630081,
        -0.2074681454748489,
        -0.6468988722552829,
        -2.484575036086484,
        -0.6006371705629263
      ]
    ],
    "reward_spread_mean_over_anchors": 0.042426838387413665,
    "reward_spread_max_over_anchors": 0.39884828643328896,
    "adv_mean_per_sample": [
      0.013460913410631947,
      0.0051840093924120185,
      -0.020124238136238218,
      0.008597340826489799,
      -0.007118025493295455
    ],
    "adv_std_per_sample": [
      0.031728470670161435,
      0.029871977210538962,
      0.06320998241402091,
      0.026221215515823362,
      0.020655093122534256
    ],
    "anchor_spread_std": [
      2.0415303609641768e-05,
      0.00013382030022190088,
      1.8241818745888273e-05,
      1.1627558261299551e-05,
      8.323240637853488e-06,
      2.2627679958852653e-05,
      0.0005428275040898505,
      0.0003384499611839086,
      7.697274097295267e-05,
      0.05003967534264005,
      7.98281841808114e-06,
      1.32729871261775e-05,
      0.00019574686743862926,
      0.00038670578450175104,
      0.05613685048213027,
      0.1519539626336497,
      0.003180516674148601,
      0.00011549989149756204,
      0.04721079111977146,
      0.0006938438487087891
    ],
    "anchor_weights": [
      1.0,
      1.0,
      1.0,
      1.0,
      1.0,
      1.0,
      1.0,
      1.0,
      1.0,
      1.0,
      1.0,
      1.0,
      1.0,
      1.0,
      1.0,
      1.0,
      1.0,
      1.0,
      1.0,
      1.0
    ]
  },
  {
    "step": 2,
    "n_samples": 5,
    "n_anchors": 20,
    "reward_mean_per_sample": [
      -0.5598822362988936,
      -0.560929230257163,
      -0.550411440424571,
      -0.5673991862299169,
      -0.5529565483268688
    ],
    "reward_std_per_sample": [
      0.6010582621280537,
      0.5960019692736777,
      0.6120562701044073,
      0.6101308662742797,
      0.6107723386090159
    ],
    "reward_min_per_sample": [
      -2.47632910604163,
      -2.462841407603635,
      -2.484348947133886,
      -2.5549291012336437,
      -2.49114468660987
    ],
    "reward_max_per_sample": [
      0.09403743153585449,
      0.035510998485879394,
      0.20117998404393328,
      0.10885806244243304,
      0.17857648564308473
    ],
    "reward_per_sample_anchor": [
      [
        -0.585565716452144,
        0.03588834291904541,
        -0.6657674846776582,
        -0.21890504529698962,
        -0.21501726884801317,
        -0.17622624051790076,
        -0.7906608587256334,
        -0.3354510484595359,
        -1.398140515059006,
        0.07546039038141769,
        -0.5296197483743333,
        -0.1774245421375692,
        -0.8714680166962696,
        -1.3503120818007979,
        -0.16071353740446528,
        0.09403743153585449,
        -0.20200937801929533,
        -0.6471155994847428,
        -2.47632910604163,
        -0.6023047028182043
      ],
      [
        -0.5854992660239298,
        0.035510998485879394,
        -0.665758852485639,
        -0.21890184031576804,
        -0.21502663343819572,
        -0.1762060820547103,
        -0.7902694453179646,
        -0.3361002371654217,
        -1.3981980950858413,
        -0.02579246078808324,
        -0.5296106515742249,
        -0.1774167592971001,
        -0.8726357654645394,
        -1.3510165370838225,
        -0.018129633010770228,
        0.032240981200938434,
        -0.21504332889825775,
        -0.6469828068307737,
        -2.462841407603635,
        -0.6009067823914
      ],
      [
        -0.5854939148941918,
        0.035366216563193234,
        -0.6657062500063973,
        -0.2188931781248069,
        -0.21501748394206152,
        -0.17623199033441414,
        -0.7914402538255404,
        -0.3355662916455539,
        -1.3981832632458386,
        0.06738615734742658,
        -0.5296151872172857,
        -0.17742586448682418,
        -0.8726722873678638,
        -1.3503463184496245,
        -0.03965901377246686,
        0.20117998404393328,
        -0.22400690608520585,
        -0.6469602069237876,
        -2.484348947133886,
        -0.6005938089902241
      ],
      [
        -0.5855234127781617,
        0.03544788113836686,
        -0.6656692634589165,
        -0.2189131076218251,
        -0.21502925450559016,
        -0.17633579163620416,
        -0.790277029306838,
        -0.3356787114348436,
        -1.3981101604868325,
        0.10885806244243304,
        -0.5295888512684419,
        -0.17742321199220076,
        -0.8712558390716336,
        -1.3504350762758244,
        -0.03407063798176046,
        -0.1211011646071587,
        -0.2181469772458457,
        -0.6472705592072537,
        -2.5549291012336437,
        -0.6025315180661608
      ],
      [
        -0.5854516523503434,
        0.03589232485962342,
        -0.6657915934530407,
        -0.21887352223127485,
        -0.21502991725011972,
        -0.17622675557640713,
        -0.7913961228335389,
        -0.3361429065240855,
        -1.398106623259422,
        0.17857648564308473,
        -0.5295903350284874,
        -0.17743634208830122,
        -0.8715258807437263,
        -1.3503483628023798,
        -0.010236876547509125,
        0.026793326846963367,
        -0.23370377256870878,
        -0.6469437786822572,
        -2.49114468660987,
        -0.6024439753375761
      ]
    ],
    "reward_spread_mean_over_anchors": 0.04041216506804847,
    "reward_spread_max_over_anchors": 0.322281148651092,
    "adv_mean_per_sample": [
      -0.0015665079914108978,
      -0.0026135019496803117,
      0.00790428788291164,
      -0.009083457922434115,
      0.005359179980613832
    ],
    "adv_std_per_sample": [
      0.026934642484780995,
      0.026095084426723685,
      0.033991645458391194,
      0.03957978707603538,
      0.023863362582455125
    ],
    "anchor_spread_std": [
      3.744644832284725e-05,
      0.00022453256873673942,
      4.451254298952574e-05,
      1.3511844031672356e-05,
      5.608276448425976e-06,
      4.606748141739916e-05,
      0.0005175426922617166,
      0.00028216501707482167,
      3.7289519266397176e-05,
      0.06620852446980519,
      1.2876854346453858e-05,
      6.326364158169247e-06,
      0.0006129647249172795,
      0.0002655576218209989,
      0.055103859279651904,
      0.10475442060075382,
      0.010444719708110907,
      0.00012385878435503203,
      0.03192721816004068,
      0.000830382018670482
    ],
    "anchor_weights": [
      1.0,
      1.0,
      1.0,
      1.0,
      1.0,
      1.0,
      1.0,
      1.0,
      1.0,
      1.0,
      1.0,
      1.0,
      1.0,
      1.0,
      1.0,
      1.0,
      1.0,
      1.0,
      1.0,
      1.0
    ]
  }
]