[
  {
    "step": 1,
    "n_samples": 5,
    "n_anchors": 15,
    "reward_mean_per_sample": [
      -0.7031555972778343,
      -0.77698362848402,
      -0.7293775098354867,
      -0.7259941905789132,
      -0.7367775529955506
    ],
    "reward_std_per_sample": [
      0.8053630196702385,
      0.9163791057741485,
      0.8169101423552911,
      0.7835113294551975,
      0.8862462586156397
    ],
    "reward_min_per_sample": [
      -3.132561145001693,
      -3.4979078472032477,
      -3.132243357352623,
      -3.1324755692857007,
      -3.4977719025235388
    ],
    "reward_max_per_sample": [
      -0.03692444210846929,
      -0.036883961861022954,
      -0.03690421784016213,
      -0.03691050254789584,
      -0.03690568012200529
    ],
    "reward_per_sample_anchor": [
      [
        -0.42962170065582356,
        -0.21888935174556015,
        -0.14384214827346875,
        -0.5677694768193006,
        -1.7904295363232818,
        -0.03692444210846929,
        -0.14142855879725752,
        -0.04081883411655962,
        -0.6527079008285033,
        -0.5774900506550332,
        -0.21737315902249899,
        -1.3505773863975818,
        -3.132561145001693,
        -0.3782981757187695,
        -0.868602092703714
      ],
      [
        -1.0951057350044602,
        -0.2188976150723781,
        -0.23327874155554096,
        -0.5677823573209457,
        -2.1791949448354924,
        -0.036883961861022954,
        -0.14142630606748163,
        -0.040812702775911154,
        -0.6533896605370549,
        -0.5939107489704082,
        -0.23564998900957373,
        -1.3512906270245508,
        -3.4979078472032477,
        -0.5310652363265286,
        -0.278157953695702
      ],
      [
        -0.5791291974098449,
        -0.21890344253494778,
        -0.1634474385364419,
        -0.5677733199470699,
        -1.968721047836089,
        -0.03690421784016213,
        -0.14142442967704758,
        -0.04081459641180645,
        -0.6534199550981712,
        -0.6155183006118173,
        -0.23075072608620417,
        -1.3919393890644645,
        -3.132243357352623,
        -0.4741268397373127,
        -0.7255463893882975
      ],
      [
        -0.6477478496174799,
        -0.21890221806442317,
        -0.23259578557860575,
        -0.5677756448177409,
        -1.6807016784430058,
        -0.03691050254789584,
        -0.14142949400524527,
        -0.04081788530838451,
        -0.6534526604450455,
        -0.5697713864061512,
        -0.2703904258599486,
        -1.3504586949015627,
        -3.1324755692857007,
        -0.5070967606033052,
        -0.8393863027992035
      ],
      [
        -0.5998310318192915,
        -0.2188853955854482,
        -0.14081424947418364,
        -0.5677671859426895,
        -1.9244473069671952,
        -0.03690568012200529,
        -0.14142881550956937,
        -0.04081440590800793,
        -0.6535547435571724,
        -0.5894828374986925,
        -0.2300764511630592,
        -1.3507470185518433,
        -3.4977719025235388,
        -0.5171062847069055,
        -0.5420299856036584
      ]
    ],
    "reward_spread_mean_over_anchors": 0.16709960629784076,
    "reward_spread_max_over_anchors": 0.6654840343486366,
    "anchor_spread_std": [
      0.2245762879933994,
      7.1068319505959024e-06,
      0.041671963261541975,
      5.274297749050377e-06,
      0.16910893308557734,
      1.303116597784997e-05,
      1.8803120120380025e-06,
      2.301002092243294e-06,
      0.00030367250512586985,
      0.015681275659817865,
      0.01782599010838035,
      0.01647084554400906,
      0.17901520474286686,
      0.05492665449596724,
      0.21876131433388177
    ],
    "adv_mean_per_sample": [
      0.03130209855652666,
      -0.042525932649658954,
      0.00508018599887432,
      0.00846350525544776,
      -0.0023198571611897237
    ],
    "adv_std_per_sample": [
      0.09618093953760803,
      0.16703624060284894,
      0.05214126269647569,
      0.08681865930116232,
      0.06739519060157804
    ],
    "anchor_weights": [
      2.5934637132556695,
      0.0002237916902612056,
      1.3122357696978295,
      0.00016608581944897193,
      2.5934637132556695,
      0.00041034692821360924,
      5.9210377608147805e-05,
      7.245776333215809e-05,
      0.009562542590060074,
      0.49379796930027126,
      0.5613342885643257,
      0.5186612529955719,
      2.5934637132556695,
      1.7296214312504001,
      2.5934637132556695
    ],
    "top_anchor_indices": [
      0,
      14,
      12,
      4
    ],
    "reward_w0_per_sample_anchor": [
      [
        -0.4569287680046185,
        -0.2189134845951018,
        -0.15292574420841515,
        -0.5677723906561409,
        -1.8058296081506613,
        -0.03695230654017801,
        -0.14142581175230412,
        -0.04081642775699439,
        -0.6534353843016796,
        -0.61342424194833,
        -0.21757529078172144,
        -1.3504773656227562,
        -3.1324779935742546,
        -0.4182833874129167,
        -0.7311043104440587
      ],
      [
        -0.5683407280359377,
        -0.21891136893161958,
        -0.27754734807329096,
        -0.5677679575776172,
        -1.947148909175482,
        -0.03693055381194787,
        -0.14142469220983306,
        -0.040816057259728596,
        -0.653487035344491,
        -0.6012616156907608,
        -0.22546489665019964,
        -1.3501704343350371,
        -3.4979603449216468,
        -0.494800388887641,
        -0.7185370888900722
      ],
      [
        -0.5216245019494564,
        -0.2189055254078342,
        -0.14357329193305285,
        -0.5677734431484615,
        -1.8676311464498185,
        -0.03689852171953141,
        -0.14142980586366768,
        -0.040812009120485604,
        -0.653518295467975,
        -0.609642178211416,
        -0.2172651296315328,
        -1.3901333771241422,
        -3.132425796393127,
        -0.4194329643490758,
        -0.6353237625749686
      ],
      [
        -0.5203883272261497,
        -0.21890969475725547,
        -0.19847322874581685,
        -0.5677773222669354,
        -1.9363548477952064,
        -0.03688818866664066,
        -0.1414258284302576,
        -0.04081853261804216,
        -0.6535152806863952,
        -0.6054873260978636,
        -0.24434903434597452,
        -1.3509989670132732,
        -3.132496335261066,
        -0.4700828972462003,
        -0.6942658782833119
      ],
      [
        -0.490781323448777,
        -0.218907002789531,
        -0.1618537591988442,
        -0.5677761315743163,
        -1.9256326170572338,
        -0.036878401530976095,
        -0.14142402934547488,
        -0.04081650048952742,
        -0.653458112622167,
        -0.6048031027794719,
        -0.21535666599035574,
        -1.3510491494373076,
        -3.4979518884975467,
        -0.511624836921092,
        -0.7169066764045858
      ]
    ],
    "delta_reward_per_sample_anchor": [
      [
        0.027307067348794956,
        2.413284954164152e-05,
        0.009083595934946398,
        2.913836840368056e-06,
        0.015400071827379458,
        2.7864431708719828e-05,
        -2.7470449533995023e-06,
        -2.406359565228222e-06,
        0.0007274834731763047,
        0.03593419129329678,
        0.00020213175922245696,
        -0.00010002077482562655,
        -8.315142743819948e-05,
        0.039985211694147205,
        -0.13749778225965537
      ],
      [
        -0.5267650069685225,
        1.3753859241488753e-05,
        0.04426860651775,
        -1.439974332850813e-05,
        -0.23204603566001047,
        4.6591950924913805e-05,
        -1.6138576485746903e-06,
        3.3544838174415226e-06,
        9.737480743610138e-05,
        0.007350866720352567,
        -0.010185092359374093,
        -0.0011201926895136882,
        5.2497718399102666e-05,
        -0.03626484743888758,
        0.44037913519437016
      ],
      [
        -0.0575046954603885,
        2.082872886416398e-06,
        -0.019874146603389042,
        1.2320139153310095e-07,
        -0.1010899013862705,
        -5.6961206307201695e-06,
        5.376186620109635e-06,
        -2.587291320847729e-06,
        9.834036980382876e-05,
        -0.005876122400401362,
        -0.013485596454671372,
        -0.0018060119403222608,
        0.00018243904050407878,
        -0.05469387538823689,
        -0.09022262681332893
      ],
      [
        -0.1273595223913302,
        7.476692832297793e-06,
        -0.03412255683278889,
        1.6774491945481529e-06,
        0.2556531693522006,
        -2.231388125517597e-05,
        -3.6655749876546295e-06,
        6.473096576462001e-07,
        6.262024134973121e-05,
        0.035715939691712384,
        -0.026041391513974083,
        0.0005402721117104825,
        2.0765975365488742e-05,
        -0.03701386335710494,
        -0.14512042451589158
      ],
      [
        -0.10904970837051453,
        2.1607204082813025e-05,
        0.021039509724660566,
        8.945631626788852e-06,
        0.0011853100900385272,
        -2.7278591029196442e-05,
        -4.786164094494616e-06,
        2.094581519486438e-06,
        -9.663093500533737e-05,
        0.015320265280779455,
        -0.014719785172703448,
        0.00030213088546426903,
        0.0001799859740079235,
        -0.005481447785813498,
        0.17487669080092738
      ]
    ],
    "reward_w0_mean_per_anchor": [
      -0.5116127297329879,
      -0.21890941529626842,
      -0.18687467443188402,
      -0.5677734490446942,
      -1.8965194257256806,
      -0.03690959445385481,
      -0.14142603352030747,
      -0.040815905448955636,
      -0.6534828216845415,
      -0.6069236929455684,
      -0.22400220347995684,
      -1.3585658587065033,
      -3.278662471729528,
      -0.4628448949633851,
      -0.6992275433193995
    ],
    "delta_reward_best_per_anchor": [
      0.027307067348794956,
      2.413284954164152e-05,
      0.04426860651775,
      8.945631626788852e-06,
      0.2556531693522006,
      4.6591950924913805e-05,
      5.376186620109635e-06,
      3.3544838174415226e-06,
      0.0007274834731763047,
      0.03593419129329678,
      0.00020213175922245696,
      0.0005402721117104825,
      0.00018243904050407878,
      0.039985211694147205,
      0.44037913519437016
    ]
  },
  {
    "step": 2,
    "n_samples": 5,
    "n_anchors": 15,
    "reward_mean_per_sample": [
      -0.6970097036961628,
      -0.7301406576904773,
      -0.741483630248905,
      -0.6893244111619163,
      -0.6740268301518662
    ],
    "reward_std_per_sample": [
      0.813555815134426,
      0.8023377420044137,
      0.7960798698726277,
      0.8035067645732783,
      0.8192030675564327
    ],
    "reward_min_per_sample": [
      -3.1323027313878433,
      -3.1324807621499193,
      -3.1323816496666264,
      -3.132341242194517,
      -3.132416522218568
    ],
    "reward_max_per_sample": [
      -0.04081213135516751,
      -0.03685882962507327,
      -0.040812104247239606,
      -0.036914351892939005,
      -0.04081620619970885
    ],
    "reward_per_sample_anchor": [
      [
        -0.42468029280724584,
        -0.21890647018136472,
        -0.16693666663525947,
        -0.5677761339221329,
        -1.9165706009577654,
        -0.059868436646447205,
        -0.1414237978191967,
        -0.04081213135516751,
        -0.6533151428165996,
        -0.6148643618639469,
        -0.22146109796850977,
        -1.3506197607083783,
        -3.1323027313878433,
        -0.5038222981335526,
        -0.4417856322390339
      ],
      [
        -0.4816864369341043,
        -0.21891122390139484,
        -0.4033742370155276,
        -0.567774086521765,
        -1.8468799220562224,
        -0.03685882962507327,
        -0.1414275188098468,
        -0.0408098141220843,
        -0.6530687855577907,
        -0.6149872016976026,
        -0.2238995836377778,
        -1.350483812091594,
        -3.1324807621499193,
        -0.30785745389063257,
        -0.9316101973458235
      ],
      [
        -0.8647011315280598,
        -0.21888177645946996,
        -0.2089164214814105,
        -0.5677649411709574,
        -1.799696297152642,
        -0.05986236987942225,
        -0.14143042088434238,
        -0.040812104247239606,
        -0.6535363283640407,
        -0.5736410789506162,
        -0.23692030858921465,
        -1.3504475082068683,
        -3.1323816496666264,
        -0.451008285371379,
        -0.822253831781286
      ],
      [
        -0.5956919993736075,
        -0.2189001568452896,
        -0.18783709392363207,
        -0.5677677512751996,
        -1.7624375056735946,
        -0.036914351892939005,
        -0.14142854036825184,
        -0.040813757950617785,
        -0.6534927589707885,
        -0.6143207172217546,
        -0.2271598959825809,
        -1.3505317367385439,
        -3.132341242194517,
        -0.17876714597189436,
        -0.631461513045533
      ],
      [
        -0.4445711679123214,
        -0.2189097520289736,
        -0.19412002586355354,
        -0.5677719282771846,
        -1.89445530013772,
        -0.05984043410428913,
        -0.14142659809828115,
        -0.04081620619970885,
        -0.653540128917215,
        -0.5943834289943032,
        -0.22789447056449025,
        -1.3504526561651373,
        -3.132416522218568,
        -0.3929671284450964,
        -0.19683670435114964
      ]
    ],
    "reward_spread_mean_over_anchors": 0.13140735812596877,
    "reward_spread_max_over_anchors": 0.7347734929946739,
    "anchor_spread_std": [
      0.1623941332216626,
      1.0746800618429619e-05,
      0.08662585317345396,
      4.098879071894366e-06,
      0.057333727663735304,
      0.0112532132135491,
      2.1934436144860657e-06,
      2.115015464890333e-06,
      0.00018071548137330067,
      0.01641483882215075,
      0.005261927516258582,
      6.380759140317698e-05,
      6.14121467273347e-05,
      0.11435156875916161,
      0.26374595521952987
    ],
    "adv_mean_per_sample": [
      0.009387342893702633,
      -0.023743611100611694,
      -0.035086583659039446,
      0.017072635427949283,
      0.032370216437999436
    ],
    "adv_std_per_sample": [
      0.06963470260653247,
      0.0959131086806647,
      0.0934091336937488,
      0.052789022684103196,
      0.10626619602892154
    ],
    "anchor_weights": [
      2.3947323798877305,
      0.000977999842925689,
      2.3947323798877305,
      0.0003730136280382446,
      2.3947323798877305,
      1.0240853204614966,
      0.00019961173437562052,
      0.00019247447364948014,
      0.016445798026087737,
      1.4938129364923296,
      0.4788554721636996,
      0.005806734170052222,
      0.005588739568692132,
      2.3947323798877305,
      2.3947323798877305
    ],
    "top_anchor_indices": [
      14,
      0,
      13,
      2
    ],
    "reward_w0_per_sample_anchor": [
      [
        -0.45521680475492765,
        -0.21890175963123995,
        -0.15509501301348028,
        -0.5677620430821374,
        -1.8607773541617472,
        -0.059857800243168946,
        -0.14143112735925378,
        -0.040820543466116466,
        -0.6535082683972595,
        -0.6096267187686952,
        -0.22432378337759643,
        -1.3505835396540333,
        -3.1324487105287617,
        -0.5065019022667551,
        -0.7782442854205909
      ],
      [
        -0.47944094220345407,
        -0.2189057877543501,
        -0.448466402572119,
        -0.5677689443957289,
        -1.9279880101075135,
        -0.03689401290096091,
        -0.1414298368072002,
        -0.04081220147540046,
        -0.653512328123465,
        -0.6089648846922007,
        -0.21487754430332548,
        -1.3504912415696204,
        -3.1322016804464745,
        -0.46347849654842593,
        -0.6837556143651776
      ],
      [
        -0.5160027935392117,
        -0.21891250699552917,
        -0.18842014666824544,
        -0.5677752649393535,
        -1.83539891428558,
        -0.059865759349417035,
        -0.14142154453593755,
        -0.04081376102611666,
        -0.6534510181124068,
        -0.6124995260123893,
        -0.2444277779227096,
        -1.3510733150576353,
        -3.132386623098751,
        -0.46003678211662125,
        -0.6801178156879135
      ],
      [
        -0.48750634416601757,
        -0.21891119045338414,
        -0.16930400512643573,
        -0.5677656406572815,
        -1.8329629393926816,
        -0.036883796788047686,
        -0.14142504024051986,
        -0.04081753155585176,
        -0.6534602831077576,
        -0.6079485047568851,
        -0.2302158532874426,
        -1.3505218788263567,
        -3.132358151391431,
        -0.5057453251879818,
        -0.686384528410027
      ],
      [
        -0.45198250238525256,
        -0.21890622718239955,
        -0.1847211077878002,
        -0.5677787681206619,
        -1.8812897365201566,
        -0.05985331691460777,
        -0.1414262713322358,
        -0.040819406758513525,
        -0.6534352741548669,
        -0.6030113587783416,
        -0.23114778663440771,
        -1.3505274388471136,
        -3.1324616003664905,
        -0.4739710624236718,
        -0.5603395866170624
      ]
    ],
    "delta_reward_per_sample_anchor": [
      [
        0.03053651194768181,
        -4.710550124770174e-06,
        -0.011841653621779191,
        -1.4090839995484217e-05,
        -0.05579324679601827,
        -1.0636403278259376e-05,
        7.329540057082751e-06,
        8.412110948957663e-06,
        0.00019312558065986973,
        -0.005237643095251654,
        0.002862685409086657,
        -3.622105434497591e-05,
        0.00014597914091840636,
        0.002679604133202451,
        0.336458653181557
      ],
      [
        -0.0022454947306502215,
        -5.436147044735051e-06,
        0.0450921655565914,
        -5.142126036083994e-06,
        0.0811080880512911,
        3.518327588764025e-05,
        2.3179973533959952e-06,
        2.3873533161605787e-06,
        0.0004435425656743597,
        -0.0060223170054019,
        -0.009022039334452309,
        7.429478026343972e-06,
        -0.00027908170344481675,
        0.15562104265779336,
        -0.2478545829806459
      ],
      [
        -0.3486983379888481,
        3.073053605920362e-05,
        -0.020496274813165072,
        1.0323768396047761e-05,
        0.035702617132937986,
        3.389469994785621e-06,
        -8.876348404823764e-06,
        1.6567788770557867e-06,
        -8.531025163394101e-05,
        0.038858447061773105,
        0.007507469333494943,
        0.0006258068507669634,
        4.973432124799615e-06,
        0.009028496745242254,
        -0.14213601609337245
      ],
      [
        -0.10818565520758994,
        1.103360809454057e-05,
        -0.01853308879719634,
        -2.1106179181051843e-06,
        0.07052543371908704,
        -3.055510489131941e-05,
        -3.500127731981273e-06,
        3.7736052339726323e-06,
        -3.2475863030900776e-05,
        -0.00637221246486952,
        0.0030559573048616895,
        -9.857912187216655e-06,
        1.6909196913772462e-05,
        0.3269781792160874,
        0.054923015364493954
      ],
      [
        0.007411334472931186,
        -3.524846574037843e-06,
        -0.009398918075753326,
        6.839843477268737e-06,
        -0.01316556361756338,
        1.2882810318637361e-05,
        -3.267660453609711e-07,
        3.2005588046779554e-06,
        -0.00010485476234811664,
        0.008627929784038368,
        0.003253316069917467,
        7.478268197624871e-05,
        4.507814792242826e-05,
        0.08100393397857542,
        0.36350288226591276
      ]
    ],
    "reward_w0_mean_per_anchor": [
      -0.47802987740977276,
      -0.21890749440338056,
      -0.22920133503361612,
      -0.5677701322390327,
      -1.8676833908935357,
      -0.05067093723924047,
      -0.14142676405502944,
      -0.040816688856399774,
      -0.6534734343791511,
      -0.6084101986017024,
      -0.22899854910509637,
      -1.3506394827909518,
      -3.132371353166382,
      -0.4819467137086912,
      -0.6777683661001543
    ],
    "delta_reward_best_per_anchor": [
      0.03053651194768181,
      3.073053605920362e-05,
      0.0450921655565914,
      1.0323768396047761e-05,
      0.0811080880512911,
      3.518327588764025e-05,
      7.329540057082751e-06,
      8.412110948957663e-06,
      0.0004435425656743597,
      0.038858447061773105,
      0.007507469333494943,
      0.0006258068507669634,
      0.00014597914091840636,
      0.3269781792160874,
      0.36350288226591276
    ]
  },
  {
    "step": 3,
    "n_samples": 5,
    "n_anchors": 15,
    "reward_mean_per_sample": [
      -0.6949559621645008,
      -0.7342322302456836,
      -0.7250304362370432,
      -0.7272554023194984,
      -0.7108436154432913
    ],
    "reward_std_per_sample": [
      0.8017609448235978,
      0.7879544797549168,
      0.7944831889377192,
      0.8139006941760135,
      0.7986344821554627
    ],
    "reward_min_per_sample": [
      -3.132400640633015,
      -3.1323700221324207,
      -3.1326132664148028,
      -3.1322915399179214,
      -3.132439834438611
    ],
    "reward_max_per_sample": [
      -0.04082424183604108,
      -0.040813046711509524,
      -0.03686502173427901,
      -0.03694451668090186,
      -0.036927319073498346
    ],
    "reward_per_sample_anchor": [
      [
        -0.6526293776994134,
        -0.21889539990031365,
        -0.20503197262642228,
        -0.5677746346052025,
        -1.7943682349207042,
        -0.0598467532691195,
        -0.14142925722290361,
        -0.04082424183604108,
        -0.6534056462683366,
        -0.6102660838254139,
        -0.2366306887205223,
        -1.350456426891251,
        -3.132400640633015,
        -0.4883537009792197,
        -0.27202637306963284
      ],
      [
        -0.559321780254916,
        -0.21889483152593367,
        -0.2641459858790846,
        -0.5677620502065697,
        -1.6964318163691303,
        -0.05986014716440667,
        -0.14142767034762413,
        -0.040813046711509524,
        -0.6535644461722906,
        -0.6030994814900807,
        -0.23061903541913725,
        -1.3506098812399254,
        -3.1323700221324207,
        -0.47643583948023005,
        -1.0181274192919942
      ],
      [
        -0.8940252766513754,
        -0.2188992735634044,
        -0.18465773888425852,
        -0.5677712097959053,
        -1.7509341942644487,
        -0.03686502173427901,
        -0.14143194715605953,
        -0.04081501432526555,
        -0.6536112422743503,
        -0.6063650591077206,
        -0.22092605193679965,
        -1.3504361972014447,
        -3.1326132664148028,
        -0.5157870131516286,
        -0.5603180370939057
      ],
      [
        -0.7772386454444311,
        -0.21890238871525156,
        -0.19278206047900362,
        -0.5677782806359462,
        -1.9602217949850624,
        -0.03694451668090186,
        -0.1414271184726304,
        -0.04081557296259757,
        -0.6533791319633483,
        -0.6102628460230279,
        -0.21940755346226237,
        -1.3521188286143757,
        -3.1322915399179214,
        -0.5219861876051329,
        -0.48327456883058284
      ],
      [
        -0.4574315796707725,
        -0.21889909987729403,
        -0.2991475414843325,
        -0.5677670245988672,
        -1.8337784232263783,
        -0.036927319073498346,
        -0.14142881083147021,
        -0.04081802406162734,
        -0.6535409559104174,
        -0.6096725541411329,
        -0.21894670393441146,
        -1.3505130329899169,
        -3.132439834438611,
        -0.5142466229121511,
        -0.5870967044984892
      ]
    ],
    "reward_spread_mean_over_anchors": 0.1104431243161943,
    "reward_spread_max_over_anchors": 0.7461010462223614,
    "anchor_spread_std": [
      0.1545358824525361,
      2.7818993704935827e-06,
      0.04473978623836442,
      5.683599779725539e-06,
      0.08913153629861402,
      0.011238861299508452,
      1.6785777958147317e-06,
      3.871401769734866e-06,
      9.134204238437792e-05,
      0.0028184694731296185,
      0.007083688065212907,
      0.0006487816557902344,
      0.00010683916643595311,
      0.017719951983353452,
      0.243520042438751
    ],
    "adv_mean_per_sample": [
      0.023507567117502706,
      -0.015768700963680084,
      -0.006566906955039772,
      -0.00879187303749493,
      0.0076199138387121465
    ],
    "adv_std_per_sample": [
      0.07775064066617735,
      0.11856873850104391,
      0.061292724280366355,
      0.05546901483457142,
      0.057379213541759615
    ],
    "anchor_weights": [
      2.286334792550942,
      0.00045117376731694357,
      2.286334792550942,
      0.0009217770965186094,
      2.286334792550942,
      1.8227400482685885,
      0.00027223496144575975,
      0.0006278713528515791,
      0.014814027356306483,
      0.4571047765951621,
      1.1488460958647573,
      0.10522065136995573,
      0.01732738061239017,
      2.286334792550942,
      2.286334792550942
    ],
    "top_anchor_indices": [
      14,
      0,
      4,
      2
    ],
    "reward_w0_per_sample_anchor": [
      [
        -0.5197191740624748,
        -0.21891190708917363,
        -0.192351320267735,
        -0.5677744484401668,
        -1.9371333938205864,
        -0.05985913780506642,
        -0.1414226275225449,
        -0.04082283263930287,
        -0.653538267572313,
        -0.6052064285326522,
        -0.21729205871523583,
        -1.3506974578505666,
        -3.132225420238302,
        -0.443309530014581,
        -1.1044698828587216
      ],
      [
        -0.42511858127594265,
        -0.2189101897936327,
        -0.2744652083671102,
        -0.5677714729562686,
        -1.9389569382751424,
        -0.05985994990685978,
        -0.14142498592160443,
        -0.04081502160247372,
        -0.6534764380590774,
        -0.6059290849470892,
        -0.24447285923541015,
        -1.3510431549977393,
        -3.132548246290045,
        -0.4677064982407858,
        -0.6844086165613027
      ],
      [
        -0.5241681873420638,
        -0.2189122441285356,
        -0.1842370782802589,
        -0.5677721071302342,
        -1.9311164973154278,
        -0.03690776159443427,
        -0.1414226709388071,
        -0.04081352477880287,
        -0.6534173088778346,
        -0.6048232605990629,
        -0.2231111062240632,
        -1.3509468301542664,
        -3.13250788108458,
        -0.5134862944460158,
        -0.6067280637769883
      ],
      [
        -0.5097543920633995,
        -0.2189124607791248,
        -0.2814380451365,
        -0.5677633343048764,
        -1.8900538082076328,
        -0.03693485663430499,
        -0.14142674548319586,
        -0.04081403998073238,
        -0.653511009521347,
        -0.6051294064710622,
        -0.20624932570229354,
        -1.3502290889255923,
        -3.132293472333639,
        -0.5211590860488144,
        -0.721486053450554
      ],
      [
        -0.4552265783233124,
        -0.21890969851214642,
        -0.2759575954800944,
        -0.5677732269078632,
        -1.8304957810507254,
        -0.03691047665432476,
        -0.14142414710897155,
        -0.040818991905154534,
        -0.653468839383831,
        -0.6031270050762754,
        -0.21991233569448107,
        -1.3505954212582876,
        -3.1323516042510153,
        -0.49068274692675606,
        -0.8017508495628722
      ]
    ],
    "delta_reward_per_sample_anchor": [
      [
        -0.13291020363693862,
        1.6507188859982147e-05,
        -0.012680652358687289,
        -1.8616503572044252e-07,
        0.14276515889988217,
        1.2384535946922959e-05,
        -6.629700358723456e-06,
        -1.4091967382098836e-06,
        0.00013262130397639904,
        -0.0050596552927617555,
        -0.01933863000528646,
        0.0002410309593157134,
        -0.00017522039471318251,
        -0.0450441709646387,
        0.8324435097890888
      ],
      [
        -0.13420319897897331,
        1.535826769902271e-05,
        0.010319222488025581,
        9.422749698950739e-06,
        0.24252512190601205,
        -1.9725754689392527e-07,
        -2.6844260196945413e-06,
        1.974890964193121e-06,
        -8.800811321318935e-05,
        0.002829603457008445,
        0.013853823816272898,
        0.000433273757813879,
        0.00017822415762447363,
        -0.008729341239444244,
        -0.33371880273069154
      ],
      [
        -0.3698570893093116,
        1.297056513119288e-05,
        -0.00042066060399961747,
        8.973343288420921e-07,
        0.18018230305097904,
        4.273986015525949e-05,
        -9.276217252440766e-06,
        -1.489546462674074e-06,
        -0.00019393339651574415,
        -0.0015417985086577657,
        0.002185054287263538,
        0.0005106329528217213,
        -0.00010538533022286245,
        -0.00230071870561277,
        0.046410026683082584
      ],
      [
        -0.26748425338103166,
        1.007206387323989e-05,
        0.08865598465749638,
        -1.4946331069798369e-05,
        -0.07016798677742964,
        -9.660046596866867e-06,
        -3.729894345327889e-07,
        -1.5329818651918514e-06,
        0.00013187755799870526,
        -0.005133439551965768,
        -0.013158227759968832,
        -0.001889739688783365,
        1.9324157176647816e-06,
        -0.000827101556318488,
        0.23821148461997121
      ],
      [
        -0.0022050013474601005,
        1.059863485239343e-05,
        -0.02318994600423807,
        6.202308996061667e-06,
        -0.0032826421756528834,
        -1.6842419173587753e-05,
        -4.6637224986600945e-06,
        9.67843527197032e-07,
        -7.211652658634105e-05,
        -0.006545549064857492,
        0.0009656317600696129,
        8.238826837070334e-05,
        -8.823018759551715e-05,
        -0.023563875985395,
        0.21465414506438307
      ]
    ],
    "reward_w0_mean_per_anchor": [
      -0.4867973826134386,
      -0.21891130006052265,
      -0.2416898495063397,
      -0.5677709179478818,
      -1.9055512837339026,
      -0.04609443651899804,
      -0.14142423539502477,
      -0.04081688218129327,
      -0.6534823726828807,
      -0.6048430371252284,
      -0.22220753711429678,
      -1.3507023906372904,
      -3.1323853248395164,
      -0.48726883113539066,
      -0.7837686932420878
    ],
    "delta_reward_best_per_anchor": [
      -0.0022050013474601005,
      1.6507188859982147e-05,
      0.08865598465749638,
      9.422749698950739e-06,
      0.24252512190601205,
      4.273986015525949e-05,
      -3.729894345327889e-07,
      1.974890964193121e-06,
      0.00013262130397639904,
      0.002829603457008445,
      0.013853823816272898,
      0.0005106329528217213,
      0.00017822415762447363,
      -0.000827101556318488,
      0.8324435097890888
    ]
  }
]