[
  {
    "step": 1,
    "n_samples": 5,
    "n_anchors": 15,
    "reward_mean_per_sample": [
      -0.7175550685959476,
      -0.6728123123472163,
      -0.7067626586079948,
      -0.7285439708787899,
      -0.6859541092235866
    ],
    "reward_std_per_sample": [
      0.7981086914876004,
      0.8128543603318154,
      0.7895183025729876,
      0.8060992422574892,
      0.8216980875562218
    ],
    "reward_min_per_sample": [
      -3.1324838286593137,
      -3.13248066822941,
      -3.1324983527392023,
      -3.1326014275526934,
      -3.132550533043595
    ],
    "reward_max_per_sample": [
      -0.036917080846512594,
      -0.04081768700271688,
      -0.036901757634173846,
      -0.03690119123988293,
      -0.03693017458982557
    ],
    "reward_per_sample_anchor": [
      [
        -0.6822194861744111,
        -0.21892196890618423,
        -0.17011458273748178,
        -0.5677589705750677,
        -1.786736608115398,
        -0.036917080846512594,
        -0.14142849809483693,
        -0.04082122088393701,
        -0.6535302101458643,
        -0.6034897498911782,
        -0.22025631343155072,
        -1.3505835425824793,
        -3.1324838286593137,
        -0.4194362816899114,
        -0.7386276862050878
      ],
      [
        -0.3734835814633153,
        -0.21890291203275486,
        -0.17585036176137536,
        -0.5677787111756408,
        -1.8375547281909965,
        -0.05983637722347569,
        -0.14142871083455397,
        -0.04081768700271688,
        -0.6533387043806568,
        -0.6138550027809776,
        -0.23632211838494818,
        -1.3505907338358984,
        -3.13248066822941,
        -0.23427171022535734,
        -0.4556726776861659
      ],
      [
        -0.6680172144829396,
        -0.21889987759220847,
        -0.20074759202221615,
        -0.5677684770136142,
        -1.5855833978445468,
        -0.036901757634173846,
        -0.14142362854033658,
        -0.04082280595683761,
        -0.6535397783226793,
        -0.5657374531655301,
        -0.23596867701967295,
        -1.3509307887917066,
        -3.1324983527392023,
        -0.22359448468872273,
        -0.9790055933055352
      ],
      [
        -0.6350999936683064,
        -0.21890665123110248,
        -0.22244151492351294,
        -0.5677702352468442,
        -1.8917250774424699,
        -0.03690119123988293,
        -0.14142590832497076,
        -0.040815127879735236,
        -0.6533872508314702,
        -0.5704738868733005,
        -0.23599272294591556,
        -1.3515733152832312,
        -3.1326014275526934,
        -0.4138358195713201,
        -0.8152094401670933
      ],
      [
        -0.6654499833977672,
        -0.2189214411231018,
        -0.1567007747889111,
        -0.5677635600896473,
        -1.916937795294535,
        -0.03693017458982557,
        -0.14142958427000604,
        -0.040810922889287234,
        -0.6536403109573945,
        -0.6076030756563212,
        -0.22403024275777966,
        -1.3510652778633965,
        -3.132550533043595,
        -0.2904180549232612,
        -0.2850599067089673
      ]
    ],
    "reward_spread_mean_over_anchors": 0.1122805917172281,
    "reward_spread_max_over_anchors": 0.6939456865965679,
    "anchor_spread_std": [
      0.11669959213773949,
      9.342860117920177e-06,
      0.02347698968442428,
      6.651256291133346e-06,
      0.11796606603597606,
      0.009169536747125636,
      2.1933706792793223e-06,
      4.263905748805222e-06,
      0.00010963401864674067,
      0.020029666234716373,
      0.006939213030194438,
      0.0003648383671872424,
      4.6567805414079705e-05,
      0.08502135736227473,
      0.2506898191810852
    ],
    "adv_mean_per_sample": [
      -0.015229444665240562,
      0.029513311583490836,
      -0.00443703467728774,
      -0.02621834694808285,
      0.016371514707120633
    ],
    "adv_std_per_sample": [
      0.03737222724620793,
      0.07697852373754231,
      0.10520729406100059,
      0.0486719727507457,
      0.10029879323580107
    ],
    "anchor_weights": [
      2.616142520048452,
      0.0007043660909835526,
      1.7699500199474574,
      0.0005014438121501354,
      2.616142520048452,
      0.6912990961209752,
      0.00016536006233023164,
      0.00032145944461349924,
      0.00826540097768404,
      1.5100534024256664,
      0.5231531131676898,
      0.02750547169635956,
      0.0035107860602862,
      2.616142520048452,
      2.616142520048452
    ],
    "top_anchor_indices": [
      14,
      4,
      0,
      13
    ]
  },
  {
    "step": 2,
    "n_samples": 5,
    "n_anchors": 15,
    "reward_mean_per_sample": [
      -0.7230380731284479,
      -0.6847112123928069,
      -0.6906249511801158,
      -0.7319707693891675,
      -0.7160361736692858
    ],
    "reward_std_per_sample": [
      0.8034788262272526,
      0.8145300096760111,
      0.7923370679772406,
      0.8806507878998328,
      0.7876562666573933
    ],
    "reward_min_per_sample": [
      -3.1324435210989656,
      -3.13242764279732,
      -3.1324430051262038,
      -3.4979516816993286,
      -3.132477273192636
    ],
    "reward_max_per_sample": [
      -0.036942398972130676,
      -0.036917719666129736,
      -0.0368425490896576,
      -0.036907399569045304,
      -0.04081440857304607
    ],
    "reward_per_sample_anchor": [
      [
        -0.6539612623711017,
        -0.21891188385779492,
        -0.1915093017344515,
        -0.5677716662205371,
        -1.8857107473393364,
        -0.036942398972130676,
        -0.14142612881975558,
        -0.040813934094718285,
        -0.6522642108164541,
        -0.6038974595907814,
        -0.2673437212109337,
        -1.3508146295986607,
        -3.1324435210989656,
        -0.4942440431005244,
        -0.6075161881005711
      ],
      [
        -0.69934897922577,
        -0.21890064329201064,
        -0.14879495786944968,
        -0.5677665715764475,
        -1.8437261341984421,
        -0.036917719666129736,
        -0.14143070686757606,
        -0.040818872353627085,
        -0.6525701661189978,
        -0.6152515188302696,
        -0.28212318385484186,
        -1.35056406594873,
        -3.13242764279732,
        -0.3553043032093556,
        -0.184722720083136
      ],
      [
        -0.39460065899909635,
        -0.21891610112164236,
        -0.3015880982034605,
        -0.5677813656813662,
        -1.693550163101047,
        -0.0368425490896576,
        -0.1414290911698416,
        -0.04082120561574852,
        -0.6534402107585744,
        -0.6152473976540827,
        -0.2413023172702753,
        -1.350675916969064,
        -3.1324430051262038,
        -0.2710313985442765,
        -0.6997047883974001
      ],
      [
        -0.6060640478545604,
        -0.21890095710801402,
        -0.1946411111409962,
        -0.567780096130438,
        -1.8520698873554815,
        -0.036907399569045304,
        -0.14143000469446895,
        -0.04081931507741124,
        -0.6532074379640199,
        -0.6031820143014511,
        -0.25793269243291805,
        -1.350935768004449,
        -3.4979516816993286,
        -0.29878956968354314,
        -0.6589495578213868
      ],
      [
        -0.6559815618713456,
        -0.21888833202730523,
        -0.14867474183955987,
        -0.5677686078233475,
        -1.6879645937002041,
        -0.05978290775769692,
        -0.141425841290476,
        -0.04081440857304607,
        -0.6531853187374546,
        -0.6100174753050652,
        -0.21526878945280306,
        -1.3503802106526794,
        -3.132477273192636,
        -0.5121818776995885,
        -0.7457306651160784
      ]
    ],
    "reward_spread_mean_over_anchors": 0.12844938723400945,
    "reward_spread_max_over_anchors": 0.5610079450329424,
    "anchor_spread_std": [
      0.10781633301116358,
      9.733827287841457e-06,
      0.055916778166564644,
      6.009104479356415e-06,
      0.08435591113704118,
      0.009152215831116892,
      2.003463605472267e-06,
      2.8695273959988955e-06,
      0.00044162653746634745,
      0.0052475497828732304,
      0.022971729457313683,
      0.00019323584205501137,
      0.14620152935852904,
      0.09940203435061118,
      0.20249835132536464
    ],
    "adv_mean_per_sample": [
      -0.013761837176483011,
      0.0245650235591579,
      0.018651284771849012,
      -0.02269453343720267,
      -0.006759937717320943
    ],
    "adv_std_per_sample": [
      0.0421209584540478,
      0.10592479364029514,
      0.07825007754937521,
      0.07975796763931615,
      0.06640076836208213
    ],
    "anchor_weights": [
      2.195904341312886,
      0.00046703921317569827,
      2.195904341312886,
      0.00028832311740673407,
      2.195904341312886,
      0.4391328872167497,
      9.612827906805939e-05,
      0.00013768292549092774,
      0.02118970313284959,
      0.25178292661456336,
      1.1022076038302047,
      0.00927165779317308,
      2.195904341312886,
      2.195904341312886,
      2.195904341312886
    ],
    "top_anchor_indices": [
      14,
      12,
      0,
      13
    ]
  }
]