[
  {
    "step": 1,
    "n_samples": 5,
    "n_anchors": 20,
    "reward_mean_per_sample": [
      -0.5365576736432994,
      -0.5441129877512622,
      -0.5752066422748491,
      -0.5390679634551955,
      -0.5602987507369417
    ],
    "reward_std_per_sample": [
      0.6177268172936431,
      0.629040284321613,
      0.5956538402162136,
      0.6070358782662426,
      0.6012826097687309
    ],
    "reward_min_per_sample": [
      -2.4568135856082125,
      -2.5410180969433966,
      -2.518336251120974,
      -2.4063459353819767,
      -2.4856151843444567
    ],
    "reward_max_per_sample": [
      0.1722468394460392,
      0.17020407672496018,
      0.035591296347648085,
      0.17847224272921258,
      0.05462231194241572
    ],
    "reward_per_sample_anchor": [
      [
        -0.5854495927419808,
        0.0357302913147552,
        -0.6656948077861755,
        -0.21891322469894575,
        -0.2150144639783228,
        -0.17626824692875726,
        -0.7913358504814398,
        -0.3359408791398627,
        -1.3981783750292052,
        0.10364916432818201,
        -0.5296073460714306,
        -0.17743176117290071,
        -0.8711236766293564,
        -1.350652222356525,
        0.11283415487865311,
        0.1722468394460392,
        -0.13411677324964122,
        -0.6468733205905544,
        -2.4568135856082125,
        -0.6021997963703075
      ],
      [
        -0.5854833747705982,
        0.03579740736821409,
        -0.6657221760678828,
        -0.21890946295456942,
        -0.2150193428356354,
        -0.1762070988588192,
        -0.7914020998935698,
        -0.33549424790389565,
        -1.3982543615888645,
        0.09779864547079255,
        -0.5295839754366202,
        -0.17740064933233607,
        -0.8717297878150306,
        -1.3504213336394064,
        0.12247353539458566,
        0.17020407672496018,
        -0.20215801532046185,
        -0.6471637271752165,
        -2.5410180969433966,
        -0.6025656694474942
      ],
      [
        -0.5854496319165104,
        0.035591296347648085,
        -0.6657494170633278,
        -0.21888266458022762,
        -0.21503602882515677,
        -0.17623011546954329,
        -0.7913907377926566,
        -0.33611992855010686,
        -1.39804700161528,
        -0.01862394128224254,
        -0.5295993639216225,
        -0.1774076184188163,
        -0.8714311769963068,
        -1.3504146889002562,
        -0.038886043612413046,
        -0.2659040693968072,
        -0.13454682062959963,
        -0.6470820582267922,
        -2.518336251120974,
        -0.6005865835259903
      ],
      [
        -0.5855127266444577,
        0.035450637544886296,
        -0.6657249720492575,
        -0.2188910825707173,
        -0.21502253604059057,
        -0.1762300623208228,
        -0.7906859553544907,
        -0.33535395127310685,
        -1.3982259209047088,
        0.10599234703661431,
        -0.5295902473925493,
        -0.17743653878579985,
        -0.8716357143842479,
        -1.351014420528502,
        0.10254539068608573,
        0.17847224272921258,
        -0.23292283552061416,
        -0.6469644277580784,
        -2.4063459353819767,
        -0.6022625601907875
      ],
      [
        -0.5855064642531006,
        0.0358125842666299,
        -0.6657339169829608,
        -0.2189099758623671,
        -0.21500884058909425,
        -0.17626288651112698,
        -0.7902624893037227,
        -0.33564871610283736,
        -1.3982518238423554,
        -0.0009094637977299365,
        -0.5295979819527853,
        -0.17742764246880666,
        -0.8716552394109008,
        -1.3504909511196717,
        -0.0288275931529628,
        0.05462231194241572,
        -0.21883714957783384,
        -0.6468765524110092,
        -2.4856151843444567,
        -0.6005870392641568
      ]
    ],
    "reward_spread_mean_over_anchors": 0.04850382664295759,
    "reward_spread_max_over_anchors": 0.4443763121260198,
    "adv_mean_per_sample": [
      0.20125324829960162,
      0.08459809245330523,
      -0.15314257036023285,
      -0.04585724393455916,
      -0.08685152645668173
    ],
    "adv_std_per_sample": [
      0.9621384469290214,
      0.9458865243730671,
      1.1851388430247602,
      0.9725182325202061,
      0.8651497405632214
    ],
    "anchor_spread_std": [
      2.6940526377191918e-05,
      0.00013733500633426882,
      1.786188065122465e-05,
      1.2130754265241632e-05,
      9.150657587631119e-06,
      2.2804044874587228e-05,
      0.00046227958311680415,
      0.0002822800182481969,
      7.72365094747494e-05,
      0.05533845087129221,
      8.017786686308345e-06,
      1.410298354231241e-05,
      0.00021933219823757155,
      0.00022477407753587693,
      0.07210403758892674,
      0.17029606833018254,
      0.04211746592925128,
      0.0001146942736066222,
      0.04727308186504698,
      0.0008690488051452813
    ],
    "anchor_weights": [
      0.0,
      0.0,
      0.0,
      0.0,
      0.0,
      0.0,
      0.0,
      0.0,
      0.0,
      3.333333333333333,
      0.0,
      0.0,
      0.0,
      0.0,
      3.333333333333333,
      3.333333333333333,
      3.333333333333333,
      0.0,
      3.333333333333333,
      3.333333333333333
    ]
  },
  {
    "step": 2,
    "n_samples": 5,
    "n_anchors": 20,
    "reward_mean_per_sample": [
      -0.5573075546447384,
      -0.5564331921222277,
      -0.5477165847059912,
      -0.5590116560214617,
      -0.5460983557087952
    ],
    "reward_std_per_sample": [
      0.6019855286537069,
      0.5981053821206527,
      0.6137788263088254,
      0.6170623424634856,
      0.6164380765878126
    ],
    "reward_min_per_sample": [
      -2.4728106113963446,
      -2.4577119216256267,
      -2.4804950168798454,
      -2.548985034558667,
      -2.4873891485782957
    ],
    "reward_max_per_sample": [
      0.09393551728001927,
      0.0355247589205187,
      0.2010533404921355,
      0.13775128726370106,
      0.1928431623117633
    ],
    "reward_per_sample_anchor": [
      [
        -0.5855667629002986,
        0.035855819843301995,
        -0.6657663700894338,
        -0.21890633517096494,
        -0.21501489620724482,
        -0.1762248429747925,
        -0.7906669368489728,
        -0.3351964125243636,
        -1.3981479831216894,
        0.06714424255318022,
        -0.529620920930654,
        -0.17742181802789153,
        -0.871393387388371,
        -1.3503188241732835,
        -0.11205548892288028,
        0.09393551728001927,
        -0.19469174203555184,
        -0.6470819243614756,
        -2.4728106113963446,
        -0.6022014154970559
      ],
      [
        -0.5855053475138383,
        0.0355247589205187,
        -0.6657575754165307,
        -0.21890200702461954,
        -0.21502465518249514,
        -0.17620447754889276,
        -0.7902760260774144,
        -0.33605608743142,
        -1.3982057573399358,
        -0.011917030022551234,
        -0.5296121841798149,
        -0.17741448211787506,
        -0.8725398206660759,
        -1.3509094304732028,
        -0.009850269743590677,
        0.030120155276632067,
        -0.15061856598009113,
        -0.6469546086560133,
        -2.4577119216256267,
        -0.600848509641717
      ],
      [
        -0.5854976780732459,
        0.035393885431959565,
        -0.6657041092833084,
        -0.2188929909735811,
        -0.21501514253748288,
        -0.1762309622175099,
        -0.7914428701003642,
        -0.33525040355670604,
        -1.3981896698514995,
        0.09823843972600307,
        -0.529616353280597,
        -0.17742359525597348,
        -0.8726123052965065,
        -1.3503902429177215,
        -0.024419136690787588,
        0.2010533404921355,
        -0.22037794342882383,
        -0.6469330360308472,
        -2.4804950168798454,
        -0.6005259033951192
      ],
      [
        -0.5855258848934309,
        0.03549036168172609,
        -0.6656640038359095,
        -0.2189139461730793,
        -0.21502768844324066,
        -0.17633549906474827,
        -0.7902853918323264,
        -0.33549664524074047,
        -1.3981157713721417,
        0.13775128726370106,
        -0.5295904999082405,
        -0.1774214827897872,
        -0.8710332079093608,
        -1.3503698313637875,
        0.09109320755054473,
        -0.11530907487467718,
        -0.21681109556353895,
        -0.6472294803902338,
        -2.548985034558667,
        -0.602453438711296
      ],
      [
        -0.5854553273803924,
        0.0358511889193412,
        -0.6657920090338778,
        -0.2188739596369123,
        -0.21502854421890777,
        -0.17622532335829866,
        -0.7913978023554193,
        -0.33610227232001794,
        -1.3981115429401696,
        0.1928431623117633,
        -0.5295916252730017,
        -0.1774358882653707,
        -0.871445417284651,
        -1.3503212083656704,
        0.09844988480569469,
        0.023354784933228324,
        -0.22151521215406195,
        -0.646919249795967,
        -2.4873891485782957,
        -0.6008616041849157
      ]
    ],
    "reward_spread_mean_over_anchors": 0.045065499335770184,
    "reward_spread_max_over_anchors": 0.31636241536681264,
    "adv_mean_per_sample": [
      -0.017852199481018315,
      -0.11277876013840249,
      0.062058700845881096,
      -0.18244090907591828,
      0.25101316785094974
    ],
    "adv_std_per_sample": [
      0.8425808562927196,
      1.0097989524607782,
      0.8331802939732689,
      1.1553550371515637,
      1.0621429208100515
    ],
    "anchor_spread_std": [
      3.643275236984044e-05,
      0.00019287963855382854,
      4.630768638449505e-05,
      1.3731171324400655e-05,
      5.992530881143903e-06,
      4.651806325726538e-05,
      0.0005151257537274061,
      0.00038833038827263013,
      3.808224853863537e-05,
      0.06870549018596125,
      1.2762858232111483e-05,
      6.952519677866868e-06,
      0.0006459242690968897,
      0.00022545940811712775,
      0.0785704071749959,
      0.10307565632085895,
      0.026923068762292564,
      0.00011801614419357988,
      0.031346546940665514,
      0.0007883748666805935
    ],
    "anchor_weights": [
      0.0,
      0.0,
      0.0,
      0.0,
      0.0,
      0.0,
      0.0,
      0.0,
      0.0,
      3.333333333333333,
      0.0,
      0.0,
      0.0,
      0.0,
      3.333333333333333,
      3.333333333333333,
      3.333333333333333,
      0.0,
      3.333333333333333,
      3.333333333333333
    ]
  }
]