[
  {
    "step": 1,
    "n_samples": 5,
    "n_anchors": 20,
    "reward_mean_per_sample": [
      -0.5495744433569817,
      -0.5694601478462811,
      -0.5574821040395628,
      -0.5625486547441538,
      -0.5661667882772373
    ],
    "reward_std_per_sample": [
      0.5890277506960518,
      0.5884543516964275,
      0.6214682460348105,
      0.6120561374376962,
      0.5998362301821276
    ],
    "reward_min_per_sample": [
      -2.3745857459846387,
      -2.4598549715413656,
      -2.5662209137888734,
      -2.516501353521333,
      -2.5020545177932045
    ],
    "reward_max_per_sample": [
      0.11122475010316993,
      0.03566786643200002,
      0.1444775341883212,
      0.13672951368746236,
      0.0436307498632192
    ],
    "reward_per_sample_anchor": [
      [
        -0.5856148692718626,
        0.03567729368858935,
        -0.6657170458720085,
        -0.218906256620288,
        -0.2150251852040978,
        -0.17624767515270123,
        -0.7914154997462395,
        -0.3358485374018224,
        -1.398081517787329,
        0.11122475010316993,
        -0.5296005103393165,
        -0.17737127007985792,
        -0.871753328346724,
        -1.3512914207470244,
        -0.048418351854764174,
        0.04952212621237018,
        -0.2002868418389089,
        -0.6470723148792783,
        -2.3745857459846387,
        -0.6006766660168996
      ],
      [
        -0.5855082863814015,
        0.03566786643200002,
        -0.665689325715191,
        -0.21890525508320532,
        -0.21503593097523163,
        -0.17625539313864313,
        -0.7902638188608965,
        -0.3359387159004362,
        -1.3981467387801878,
        -0.13055804749094227,
        -0.5295966131980941,
        -0.17738790106362512,
        -0.872710578292286,
        -1.350243212230988,
        -0.025512471074967666,
        0.0005652755298278869,
        -0.24430287046769225,
        -0.6468674688148541,
        -2.4598549715413656,
        -0.6026584998774409
      ],
      [
        -0.5854600653916139,
        0.03592191253423953,
        -0.6657424211637442,
        -0.21891483978491266,
        -0.21502709905046619,
        -0.17624064200319947,
        -0.7914099031874442,
        -0.3349130805300641,
        -1.3982634445061422,
        0.049456064206783265,
        -0.5295908844651102,
        -0.1774175343168388,
        -0.8715201088479847,
        -1.350757401344659,
        -0.03258410381457211,
        0.1444775341883212,
        -0.2160512467426793,
        -0.6469494580971572,
        -2.5662209137888734,
        -0.6024344446851396
      ],
      [
        -0.585468659099659,
        0.03544838163646768,
        -0.6657482326734152,
        -0.21890885369415855,
        -0.21501842170580726,
        -0.17625432483215148,
        -0.7917955240706345,
        -0.3358541938963303,
        -1.3981538530101352,
        -0.0015775446380731362,
        -0.5296035222013704,
        -0.17743628940004913,
        -0.8726266108366314,
        -1.391910248355831,
        -0.03311892581049797,
        0.13672951368746236,
        -0.26388125917523797,
        -0.6470405284001663,
        -2.516501353521333,
        -0.6022526448855262
      ],
      [
        -0.5855563889100148,
        0.03575947870216837,
        -0.665823851522668,
        -0.21891993281048822,
        -0.21503545597540438,
        -0.17626431110805346,
        -0.7902422370640931,
        -0.33542319874628,
        -1.3981267655351337,
        0.0436307498632192,
        -0.5296000149986364,
        -0.17738573026637422,
        -0.8725514887143824,
        -1.3503498814405874,
        -0.018846457553638563,
        -0.07926542932121183,
        -0.23943995519712197,
        -0.6470426536456649,
        -2.5020545177932045,
        -0.6007977235071762
      ]
    ],
    "reward_spread_mean_over_anchors": 0.03995143244393407,
    "reward_spread_max_over_anchors": 0.2417827975941122,
    "adv_mean_per_sample": [
      0.29016650272089783,
      0.02006365470550097,
      0.32936953262598545,
      -0.4459756890698441,
      -0.19362400097994664
    ],
    "adv_std_per_sample": [
      0.9947554708559211,
      0.8991701813299694,
      1.0280545233237735,
      0.9034386178578127,
      0.9483612663354904
    ],
    "anchor_spread_std": [
      5.775103506265788e-05,
      0.00015330829171175924,
      4.4971819061487315e-05,
      5.5613953610992446e-06,
      6.604458914015619e-06,
      7.938375751599617e-06,
      0.0006459816735635459,
      0.0003857801596129043,
      6.00419152721498e-05,
      0.08090303811303173,
      4.311223888611154e-06,
      2.366206091231523e-05,
      0.0004945184732934915,
      0.01650401675509982,
      0.009856949516260049,
      0.08438099453134235,
      0.02227139694337711,
      7.570764360474624e-05,
      0.06433804656394283,
      0.0008490448023543499
    ],
    "anchor_weights": [
      0.0,
      0.0,
      0.0,
      0.0,
      0.0,
      0.0,
      0.0,
      0.0,
      0.0,
      3.333333333333333,
      0.0,
      0.0,
      0.0,
      3.333333333333333,
      3.333333333333333,
      3.333333333333333,
      3.333333333333333,
      0.0,
      3.333333333333333,
      0.0
    ]
  },
  {
    "step": 2,
    "n_samples": 5,
    "n_anchors": 20,
    "reward_mean_per_sample": [
      -0.5747969115413291,
      -0.5612650657448766,
      -0.5547119249773413,
      -0.5579584149580734,
      -0.5562737912996862
    ],
    "reward_std_per_sample": [
      0.5862032804352248,
      0.609040590755671,
      0.5893077247664705,
      0.5985683183330212,
      0.6280162444205514
    ],
    "reward_min_per_sample": [
      -2.4442418502635763,
      -2.5247643775336175,
      -2.3995489361650684,
      -2.461099704506549,
      -2.588984348764812
    ],
    "reward_max_per_sample": [
      0.11876794424071327,
      0.1062005322640458,
      0.08790806890891059,
      0.08297908292760137,
      0.1674770741970181
    ],
    "reward_per_sample_anchor": [
      [
        -0.5854636900898408,
        0.03589397287785639,
        -0.6658170957319596,
        -0.21888907940449598,
        -0.21503541690635603,
        -0.17622899550586998,
        -0.7914481105096263,
        -0.33535010106812424,
        -1.3983090230285191,
        0.11876794424071327,
        -0.5296079989294007,
        -0.17743709927184434,
        -0.8718593488707488,
        -1.3505741825483826,
        -0.020587860493075837,
        -0.40001575366309783,
        -0.2219534519217092,
        -0.6469033527827394,
        -2.4442418502635763,
        -0.600877736955783
      ],
      [
        -0.585476155362516,
        0.0353239323548034,
        -0.6656283917271741,
        -0.21890692502714806,
        -0.21503342046620832,
        -0.17629928866624328,
        -0.7902438123385966,
        -0.33593735024619353,
        -1.3981056103555298,
        -0.02524431323228335,
        -0.5296111647810134,
        -0.1773763107146193,
        -0.8718043328084069,
        -1.350927275407244,
        -0.027846345245665007,
        0.1062005322640458,
        -0.2259300798124534,
        -0.6470089051887037,
        -2.5247643775336175,
        -0.6006817206027661
      ],
      [
        -0.5854734585578327,
        0.03528209723399134,
        -0.6657714030009664,
        -0.21891464613611825,
        -0.2150359993255715,
        -0.17623332693863725,
        -0.7918319029988471,
        -0.3352051921380591,
        -1.3981316018239052,
        0.08790806890891059,
        -0.5295910308078441,
        -0.17742268371591208,
        -0.8714758018161604,
        -1.3516253857964025,
        -0.028100745950835473,
        -0.007128461904465019,
        -0.21646377219815852,
        -0.6469684543285232,
        -2.3995489361650684,
        -0.6025058620864225
      ],
      [
        -0.5854383435840629,
        0.03564370558462075,
        -0.6657555297934248,
        -0.21891714493947428,
        -0.21503575991304608,
        -0.17626757028996018,
        -0.7913782495778274,
        -0.33518436572860566,
        -1.3982827635126163,
        -0.0022554542662900287,
        -0.529601853859957,
        -0.17740660915160805,
        -0.8727130044282925,
        -1.3507504930463847,
        0.08297908292760137,
        -0.044782166759004455,
        -0.20504341202780718,
        -0.6471568228171594,
        -2.461099704506549,
        -0.6007218394716214
      ],
      [
        -0.5854769445045015,
        0.03573596604652365,
        -0.6656768640402702,
        -0.2189087415656687,
        -0.2150338847681473,
        -0.17625848063280428,
        -0.7919800446137037,
        -0.33615664003844503,
        -1.3980654888145565,
        0.08477465112557306,
        -0.5296033128753604,
        -0.17741592288567842,
        -0.872400036697269,
        -1.3505301134340757,
        -0.025927513880052468,
        0.1674770741970181,
        -0.23326633753235648,
        -0.6468897948744052,
        -2.588984348764812,
        -0.6008890474407322
      ]
    ],
    "reward_spread_mean_over_anchors": 0.05243199890849095,
    "reward_spread_max_over_anchors": 0.5674928278601159,
    "adv_mean_per_sample": [
      0.08118615334441119,
      0.01064884987748711,
      -0.09322475091686803,
      0.024655000201749804,
      -0.023265252506720412
    ],
    "adv_std_per_sample": [
      0.9839447008519098,
      1.051709215248577,
      1.0301046740354687,
      1.033159324424989,
      0.8835621870697117
    ],
    "anchor_spread_std": [
      1.4480056918424662e-05,
      0.00023714841161668032,
      6.796942583677818e-05,
      9.849843561997193e-06,
      1.0425743090427202e-06,
      2.5477452138126395e-05,
      0.0006098803862434799,
      0.0004022917787198786,
      9.81735383951312e-05,
      0.05608697152566144,
      6.874589910308702e-06,
      2.030720504613448e-05,
      0.00044463537040209374,
      0.0003976281735940383,
      0.043521890137923576,
      0.1975051689564913,
      0.009484408012089962,
      9.601822331412972e-05,
      0.06621207412901427,
      0.0006902323287606294
    ],
    "anchor_weights": [
      0.0,
      0.0,
      0.0,
      0.0,
      0.0,
      0.0,
      0.0,
      0.0,
      0.0,
      3.333333333333333,
      0.0,
      0.0,
      0.0,
      0.0,
      3.333333333333333,
      3.333333333333333,
      3.333333333333333,
      0.0,
      3.333333333333333,
      3.333333333333333
    ]
  },
  {
    "step": 3,
    "n_samples": 5,
    "n_anchors": 20,
    "reward_mean_per_sample": [
      -0.5626676277713207,
      -0.56061475160813,
      -0.5648225167286004,
      -0.5655634735730247,
      -0.564778743146103
    ],
    "reward_std_per_sample": [
      0.5882295105278152,
      0.6015164121169411,
      0.5944811120108252,
      0.60094513558392,
      0.6066124061035272
    ],
    "reward_min_per_sample": [
      -2.432169405342001,
      -2.483939550889007,
      -2.468897858533156,
      -2.502468285495392,
      -2.5273597219051225
    ],
    "reward_max_per_sample": [
      0.03551607543356462,
      0.10921879647309327,
      0.07428060202125913,
      0.07881484501945683,
      0.05107793621177817
    ],
    "reward_per_sample_anchor": [
      [
        -0.5854633962717677,
        0.03551607543356462,
        -0.6657485186506613,
        -0.2189171919366876,
        -0.21503564369100808,
        -0.17630395208916472,
        -0.7914120125136554,
        -0.335958499936872,
        -1.3981663267743798,
        -0.054840826001508615,
        -0.5295984259891773,
        -0.17739037760233786,
        -0.8717722118715767,
        -1.3506433433805882,
        -0.04500460670005632,
        0.02802563598043384,
        -0.2207744821891227,
        -0.6469002493455906,
        -2.432169405342001,
        -0.6007947965542557
      ],
      [
        -0.5854626108083518,
        0.03550362716060723,
        -0.6657112958480578,
        -0.21890809306843437,
        -0.21503268173140047,
        -0.1762427720697392,
        -0.7914295209553118,
        -0.3361119660506058,
        -1.3980544515743123,
        0.005982847468148809,
        -0.5296200634852762,
        -0.17742340264552814,
        -0.8716267112606022,
        -1.3504637952646144,
        0.10921879647309327,
        -0.09404796281834871,
        -0.21953357015194572,
        -0.647029228772672,
        -2.483939550889007,
        -0.6023626258702421
      ],
      [
        -0.5854625553167169,
        0.03543032898340319,
        -0.6657312076727784,
        -0.21887988923326163,
        -0.2150343270787395,
        -0.1762510787434855,
        -0.7913538705420369,
        -0.3361071737175012,
        -1.398114860618468,
        0.07428060202125913,
        -0.5296041920280846,
        -0.17742849503541108,
        -0.8708871187826236,
        -1.3504233948771673,
        -0.022957184717876136,
        -0.12925150083336814,
        -0.22041966317145698,
        -0.6469414405857097,
        -2.468897858533156,
        -0.6024154540888267
      ],
      [
        -0.5854780089956906,
        0.03572748056677238,
        -0.6657255932547461,
        -0.2189153991837683,
        -0.21501764561494605,
        -0.17622278194677235,
        -0.7913991638694411,
        -0.33565428616515136,
        -1.3981679511101366,
        -0.021010072448206123,
        -0.5295987326520863,
        -0.17739557293720593,
        -0.8712425301770957,
        -1.3504093480563084,
        -0.08919430971339423,
        0.07881484501945683,
        -0.2501993653680784,
        -0.6469518962907623,
        -2.502468285495392,
        -0.6007608537675431
      ],
      [
        -0.5854718693129733,
        0.035852910922645476,
        -0.6657365245649649,
        -0.2188615373719669,
        -0.21503453074412587,
        -0.17627978978539155,
        -0.7912098455210301,
        -0.3353758527167121,
        -1.3981695447799265,
        0.05107793621177817,
        -0.5296107312349536,
        -0.17742066764218561,
        -0.8726947665796457,
        -1.350312882144872,
        -0.1213879701078757,
        0.0499964027972629,
        -0.21838197551687205,
        -0.6468595696625017,
        -2.5273597219051225,
        -0.6023343332626256
      ]
    ],
    "reward_spread_mean_over_anchors": 0.035026266672101916,
    "reward_spread_max_over_anchors": 0.23060676658096896,
    "adv_mean_per_sample": [
      -0.15544492165518098,
      -0.11085717951550826,
      0.026394435414072336,
      0.12494894635365561,
      0.11495871940384314
    ],
    "adv_std_per_sample": [
      1.0018646970813105,
      1.000434277445576,
      0.7643880087990657,
      1.0361970123998991,
      1.127576276023329
    ],
    "anchor_spread_std": [
      6.237749178425545e-06,
      0.00015820836134283644,
      1.2282195556882093e-05,
      2.1990940230412764e-05,
      6.726982029225603e-06,
      2.858309837123805e-05,
      7.956420760738823e-05,
      0.00028611179311564296,
      4.506313812908192e-05,
      0.04689447381909253,
      8.157136888675972e-06,
      1.5583134981692148e-05,
      0.0006090800531946498,
      0.0001083809612350418,
      0.07929394288930795,
      0.08266120158089861,
      0.012196794752085585,
      5.6731762795751256e-05,
      0.03203215919664536,
      0.0007809053897113712
    ],
    "anchor_weights": [
      0.0,
      0.0,
      0.0,
      0.0,
      0.0,
      0.0,
      0.0,
      0.0,
      0.0,
      3.333333333333333,
      0.0,
      0.0,
      0.0,
      0.0,
      3.333333333333333,
      3.333333333333333,
      3.333333333333333,
      0.0,
      3.333333333333333,
      3.333333333333333
    ]
  },
  {
    "step": 4,
    "n_samples": 5,
    "n_anchors": 20,
    "reward_mean_per_sample": [
      -0.5652214432067286,
      -0.5616908712905164,
      -0.570776097962902,
      -0.5627037832693352,
      -0.5696360385383115
    ],
    "reward_std_per_sample": [
      0.6022981602659842,
      0.6143781309454658,
      0.5848158016637184,
      0.6127296341714208,
      0.5788301796430513
    ],
    "reward_min_per_sample": [
      -2.51219182638953,
      -2.5430358015784424,
      -2.4414881433761493,
      -2.547156470002886,
      -2.4056169276495036
    ],
    "reward_max_per_sample": [
      0.035409425549105915,
      0.20895665256296364,
      0.05573508995867305,
      0.10342403712824033,
      0.06249757537258599
    ],
    "reward_per_sample_anchor": [
      [
        -0.5854346801932767,
        0.035409425549105915,
        -0.6656864146353996,
        -0.2189268468963134,
        -0.21502697083411226,
        -0.17626426246032012,
        -0.7906709754900358,
        -0.3352076685441229,
        -1.398130261442238,
        0.029236070251322112,
        -0.5296013595498192,
        -0.1773953895108064,
        -0.872311919745529,
        -1.3508397674454549,
        -0.019448462537065787,
        -0.05628006620552578,
        -0.21793305267954055,
        -0.6468772323627843,
        -2.51219182638953,
        -0.6008472030131237
      ],
      [
        -0.5854901784060158,
        0.03566463495778409,
        -0.6657383466280604,
        -0.21889548746982862,
        -0.21502537517429263,
        -0.17619925314576346,
        -0.7919065887855068,
        -0.3350659606304993,
        -1.3980459892975525,
        0.20895665256296364,
        -0.5296058079891572,
        -0.1773951471400008,
        -0.8715688753565325,
        -1.3504865152044079,
        -0.033902640686471044,
        -0.10958362595460124,
        -0.2265365314936335,
        -0.6471716226789599,
        -2.5430358015784424,
        -0.6027849657113515
      ],
      [
        -0.5854600215517753,
        0.03584041068280988,
        -0.6657343789830067,
        -0.21890331238077207,
        -0.2150096035624868,
        -0.17618576059207547,
        -0.7902212398087091,
        -0.33571057191857634,
        -1.3982840642599814,
        0.05573508995867305,
        -0.5295909709651305,
        -0.17743720947068142,
        -0.872540184744103,
        -1.350458074344119,
        -0.035714056141373365,
        -0.24904028928056393,
        -0.21759281246748874,
        -0.646989323872387,
        -2.4414881433761493,
        -0.6007374421801441
      ],
      [
        -0.5854596848173924,
        0.03537393286232862,
        -0.6657344809745638,
        -0.21891044712942853,
        -0.2150208936025364,
        -0.1762835711362164,
        -0.7914085518473076,
        -0.33545794779381044,
        -1.3981081977937844,
        0.018612696286882894,
        -0.5295979056007474,
        -0.17743405506663912,
        -0.8719268021509508,
        -1.3506144171707262,
        0.10342403712824033,
        -0.06649944531106103,
        -0.23237098458099148,
        -0.6468917565412011,
        -2.547156470002886,
        -0.6026107201439127
      ],
      [
        -0.5855109580520659,
        0.03585798160508864,
        -0.665743832528579,
        -0.21892017790668938,
        -0.215008498398416,
        -0.17622022987397984,
        -0.7908341475216972,
        -0.3348490919055281,
        -1.3980521894541338,
        0.06249757537258599,
        -0.5295959863191795,
        -0.1774279466556382,
        -0.8726249516632669,
        -1.350444770831954,
        -0.042397946062257705,
        -0.2648727961273136,
        -0.21500384801637193,
        -0.6470702849227516,
        -2.4056169276495036,
        -0.6008817438545772
      ]
    ],
    "reward_spread_mean_over_anchors": 0.035553276264101,
    "reward_spread_max_over_anchors": 0.20859272992178785,
    "adv_mean_per_sample": [
      0.013094386328992813,
      -0.024873519226391094,
      0.1506242485336784,
      -0.2527360814292803,
      0.11389096579232101
    ],
    "adv_std_per_sample": [
      1.010098807780912,
      1.0975617087823648,
      0.9933202241084521,
      0.8994543561118428,
      0.9375665253618919
    ],
    "anchor_spread_std": [
      2.6578527105167953e-05,
      0.0002057516477151824,
      2.08252827095938e-05,
      1.1270122937490805e-05,
      7.7931075794813e-06,
      3.752289594862642e-05,
      0.0005883374777922287,
      0.00030047241418602064,
      8.619954555239316e-05,
      0.06891400023555674,
      4.997957546412343e-06,
      1.875728979461032e-05,
      0.0003953839388075702,
      0.00014826896798583204,
      0.05502727498727907,
      0.08987904850681784,
      0.006526616305834493,
      0.00011072201534236226,
      0.056649777428514354,
      0.0009217912417030241
    ],
    "anchor_weights": [
      0.0,
      0.0,
      0.0,
      0.0,
      0.0,
      0.0,
      0.0,
      0.0,
      0.0,
      3.333333333333333,
      0.0,
      0.0,
      0.0,
      0.0,
      3.333333333333333,
      3.333333333333333,
      3.333333333333333,
      0.0,
      3.333333333333333,
      3.333333333333333
    ]
  }
]