[
  {
    "step": 1,
    "n_samples": 5,
    "n_anchors": 20,
    "reward_mean_per_sample": [
      -0.5495744433569817,
      -0.5694601478462811,
      -0.5574821040395628,
      -0.5625486547441538,
      -0.5661667882772373
    ],
    "reward_std_per_sample": [
      0.5890277506960518,
      0.5884543516964275,
      0.6214682460348105,
      0.6120561374376962,
      0.5998362301821276
    ],
    "reward_min_per_sample": [
      -2.3745857459846387,
      -2.4598549715413656,
      -2.5662209137888734,
      -2.516501353521333,
      -2.5020545177932045
    ],
    "reward_max_per_sample": [
      0.11122475010316993,
      0.03566786643200002,
      0.1444775341883212,
      0.13672951368746236,
      0.0436307498632192
    ],
    "reward_per_sample_anchor": [
      [
        -0.5856148692718626,
        0.03567729368858935,
        -0.6657170458720085,
        -0.218906256620288,
        -0.2150251852040978,
        -0.17624767515270123,
        -0.7914154997462395,
        -0.3358485374018224,
        -1.398081517787329,
        0.11122475010316993,
        -0.5296005103393165,
        -0.17737127007985792,
        -0.871753328346724,
        -1.3512914207470244,
        -0.048418351854764174,
        0.04952212621237018,
        -0.2002868418389089,
        -0.6470723148792783,
        -2.3745857459846387,
        -0.6006766660168996
      ],
      [
        -0.5855082863814015,
        0.03566786643200002,
        -0.665689325715191,
        -0.21890525508320532,
        -0.21503593097523163,
        -0.17625539313864313,
        -0.7902638188608965,
        -0.3359387159004362,
        -1.3981467387801878,
        -0.13055804749094227,
        -0.5295966131980941,
        -0.17738790106362512,
        -0.872710578292286,
        -1.350243212230988,
        -0.025512471074967666,
        0.0005652755298278869,
        -0.24430287046769225,
        -0.6468674688148541,
        -2.4598549715413656,
        -0.6026584998774409
      ],
      [
        -0.5854600653916139,
        0.03592191253423953,
        -0.6657424211637442,
        -0.21891483978491266,
        -0.21502709905046619,
        -0.17624064200319947,
        -0.7914099031874442,
        -0.3349130805300641,
        -1.3982634445061422,
        0.049456064206783265,
        -0.5295908844651102,
        -0.1774175343168388,
        -0.8715201088479847,
        -1.350757401344659,
        -0.03258410381457211,
        0.1444775341883212,
        -0.2160512467426793,
        -0.6469494580971572,
        -2.5662209137888734,
        -0.6024344446851396
      ],
      [
        -0.585468659099659,
        0.03544838163646768,
        -0.6657482326734152,
        -0.21890885369415855,
        -0.21501842170580726,
        -0.17625432483215148,
        -0.7917955240706345,
        -0.3358541938963303,
        -1.3981538530101352,
        -0.0015775446380731362,
        -0.5296035222013704,
        -0.17743628940004913,
        -0.8726266108366314,
        -1.391910248355831,
        -0.03311892581049797,
        0.13672951368746236,
        -0.26388125917523797,
        -0.6470405284001663,
        -2.516501353521333,
        -0.6022526448855262
      ],
      [
        -0.5855563889100148,
        0.03575947870216837,
        -0.665823851522668,
        -0.21891993281048822,
        -0.21503545597540438,
        -0.17626431110805346,
        -0.7902422370640931,
        -0.33542319874628,
        -1.3981267655351337,
        0.0436307498632192,
        -0.5296000149986364,
        -0.17738573026637422,
        -0.8725514887143824,
        -1.3503498814405874,
        -0.018846457553638563,
        -0.07926542932121183,
        -0.23943995519712197,
        -0.6470426536456649,
        -2.5020545177932045,
        -0.6007977235071762
      ]
    ],
    "reward_spread_mean_over_anchors": 0.03995143244393407,
    "reward_spread_max_over_anchors": 0.2417827975941122,
    "adv_mean_per_sample": [
      0.282842712474619,
      -0.07071067811865475,
      0.3535533905932738,
      -0.5303300858899107,
      -0.035355339059327376
    ],
    "adv_std_per_sample": [
      1.0099504938362078,
      1.0464224768228176,
      0.9617692030835672,
      0.8023403267940605,
      0.9076067430335673
    ],
    "anchor_spread_std": [
      5.775103506265788e-05,
      0.00015330829171175924,
      4.4971819061487315e-05,
      5.5613953610992446e-06,
      6.604458914015619e-06,
      7.938375751599617e-06,
      0.0006459816735635459,
      0.0003857801596129043,
      6.00419152721498e-05,
      0.08090303811303173,
      4.311223888611154e-06,
      2.366206091231523e-05,
      0.0004945184732934915,
      0.01650401675509982,
      0.009856949516260049,
      0.08438099453134235,
      0.02227139694337711,
      7.570764360474624e-05,
      0.06433804656394283,
      0.0008490448023543499
    ],
    "anchor_weights": [
      1.0,
      1.0,
      1.0,
      1.0,
      1.0,
      1.0,
      1.0,
      1.0,
      1.0,
      1.0,
      1.0,
      1.0,
      1.0,
      1.0,
      1.0,
      1.0,
      1.0,
      1.0,
      1.0,
      1.0
    ]
  },
  {
    "step": 2,
    "n_samples": 5,
    "n_anchors": 20,
    "reward_mean_per_sample": [
      -0.5704595988664873,
      -0.5611099477804617,
      -0.5619633790557443,
      -0.5600112483235252,
      -0.5570086980927024
    ],
    "reward_std_per_sample": [
      0.5906949383290379,
      0.6093361798518521,
      0.5976092877549338,
      0.6088298945249908,
      0.6277360893363388
    ],
    "reward_min_per_sample": [
      -2.4468944495728113,
      -2.526461818356011,
      -2.4733365835278653,
      -2.5201995399204145,
      -2.5911640323951977
    ],
    "reward_max_per_sample": [
      0.09902163774742115,
      0.10221485828189149,
      0.03533831348270566,
      0.08216375770398199,
      0.17047640873368042
    ],
    "reward_per_sample_anchor": [
      [
        -0.5854655260771837,
        0.03580536234670472,
        -0.6658064676791511,
        -0.21888685311155198,
        -0.21503517528921234,
        -0.1762259095731869,
        -0.7914493640638878,
        -0.3353541186928815,
        -1.3982984837262404,
        0.09902163774742115,
        -0.5296059299981111,
        -0.17742977723119352,
        -0.8717677878714755,
        -1.3505815170491864,
        0.07838413305479366,
        -0.3905154079517589,
        -0.2213408949949232,
        -0.646887205121093,
        -2.4468944495728113,
        -0.6008582424748186
      ],
      [
        -0.5854604774560891,
        0.03529516134037323,
        -0.6656848437332303,
        -0.21890606244002578,
        -0.21503313087597772,
        -0.1762952041671117,
        -0.7902593845569399,
        -0.33590221459987585,
        -1.3980922444339883,
        -0.024518022947463483,
        -0.5296093112315925,
        -0.1773685327878938,
        -0.8717331313372766,
        -1.350927765621572,
        -0.028615141660011546,
        0.10221485828189149,
        -0.21718728753698993,
        -0.6469949328692695,
        -2.526461818356011,
        -0.6006594686201823
      ],
      [
        -0.5854586058603836,
        0.03533831348270566,
        -0.6657619394943453,
        -0.21891325352229749,
        -0.2150360285048793,
        -0.17622985458238016,
        -0.7918033828094572,
        -0.3351113069080549,
        -1.3981181611422893,
        0.026815259248564732,
        -0.5295891697908072,
        -0.17741742009613592,
        -0.8713868089733823,
        -1.351633612390334,
        -0.028699699305156808,
        -0.0017426588799281523,
        -0.23176385713630818,
        -0.6469536109410812,
        -2.4733365835278653,
        -0.6024651999810707
      ],
      [
        -0.5854304116883411,
        0.035781474290892124,
        -0.6657468408747756,
        -0.21891600636755398,
        -0.21503530551348024,
        -0.1762638745477152,
        -0.7913843585678482,
        -0.3350651081025386,
        -1.398269612279433,
        0.015335112816510788,
        -0.5295999421458589,
        -0.17740033062978253,
        -0.8726453358350882,
        -1.3507660580374063,
        0.08216375770398199,
        -0.045357638469060255,
        -0.20358642694606457,
        -0.6471457255771705,
        -2.5201995399204145,
        -0.6006927957793591
      ],
      [
        -0.5854734729719266,
        0.03570510896751372,
        -0.6656698661443203,
        -0.2189071983857297,
        -0.21503256584687083,
        -0.1762554791872622,
        -0.791993496136022,
        -0.33616020566339516,
        -1.3980498917385233,
        0.0698118809667802,
        -0.5296018521038046,
        -0.17741160841706258,
        -0.8723143132876038,
        -1.350537371917194,
        -0.0277432817542222,
        0.17047640873368042,
        -0.23212118928398112,
        -0.6468741062252612,
        -2.5911640323951977,
        -0.600857429063645
      ]
    ],
    "reward_spread_mean_over_anchors": 0.04882911794709166,
    "reward_spread_max_over_anchors": 0.5609918166854393,
    "adv_mean_per_sample": [
      0.07071067811865475,
      0.0,
      -0.21213203435596423,
      0.07071067811865475,
      0.07071067811865475
    ],
    "adv_std_per_sample": [
      1.0222524150130436,
      0.9999999999999999,
      0.897217922246318,
      0.9721111047611789,
      1.0700467279516348
    ],
    "anchor_spread_std": [
      1.4582324361856708e-05,
      0.00022201284916917337,
      5.045108043208929e-05,
      1.0204958826123719e-05,
      1.3445713031186358e-06,
      2.5177492334455105e-05,
      0.0006026972371686258,
      0.0004375876260397723,
      9.949522007811048e-05,
      0.04308233223947451,
      6.854048475839583e-06,
      2.0794599498483748e-05,
      0.00044983042055849213,
      0.0003973041238010927,
      0.0532304483054301,
      0.19423321301712246,
      0.010556771489294473,
      9.778967919257787e-05,
      0.04955029291972137,
      0.0006842107752070162
    ],
    "anchor_weights": [
      1.0,
      1.0,
      1.0,
      1.0,
      1.0,
      1.0,
      1.0,
      1.0,
      1.0,
      1.0,
      1.0,
      1.0,
      1.0,
      1.0,
      1.0,
      1.0,
      1.0,
      1.0,
      1.0,
      1.0
    ]
  },
  {
    "step": 3,
    "n_samples": 5,
    "n_anchors": 20,
    "reward_mean_per_sample": [
      -0.561537414097587,
      -0.5618889462338723,
      -0.5658781910483173,
      -0.5686532464117237,
      -0.5642471536906083
    ],
    "reward_std_per_sample": [
      0.5896518749283605,
      0.6013076813738687,
      0.5928689371326481,
      0.5993306214023353,
      0.6080484010884762
    ],
    "reward_min_per_sample": [
      -2.4350665206707087,
      -2.4861028671715517,
      -2.469848110109593,
      -2.5069486620407466,
      -2.531452355854684
    ],
    "reward_max_per_sample": [
      0.035578309184576974,
      0.10789253665550914,
      0.03548946514919062,
      0.069259112798187,
      0.0877997137013086
    ],
    "reward_per_sample_anchor": [
      [
        -0.5854488523947675,
        0.035578309184576974,
        -0.6657326675120484,
        -0.21891321947932205,
        -0.2150340206922446,
        -0.17629622552484442,
        -0.7914022670266114,
        -0.335769247403223,
        -1.3981398740353392,
        -0.016525636417165444,
        -0.529594450885775,
        -0.17737452264243142,
        -0.8717383943333022,
        -1.350710749131738,
        -0.050219664877537956,
        0.013279836692631379,
        -0.21400302747423852,
        -0.646872822108957,
        -2.4350665206707087,
        -0.600764265218691
      ],
      [
        -0.5854490015785339,
        0.035554966557231324,
        -0.6656940911097868,
        -0.21890496337457885,
        -0.21503149311185285,
        -0.17623649677558717,
        -0.791414003962544,
        -0.3360990307400804,
        -1.398024695996144,
        -0.057926004616823096,
        -0.5296158713058481,
        -0.17741227733547218,
        -0.8714783968976146,
        -1.3504238504416346,
        0.10789253665550914,
        -0.010609109252308013,
        -0.2629959651105816,
        -0.6470003658606172,
        -2.4861028671715517,
        -0.6008079432486269
      ],
      [
        -0.5854466216005927,
        0.03548946514919062,
        -0.6657146877953568,
        -0.21887320784143205,
        -0.21503118472852817,
        -0.17624376902219324,
        -0.7902258347153722,
        -0.3361038171588341,
        -1.398078391891483,
        0.014052565419842176,
        -0.5296005617596276,
        -0.17741114692420418,
        -0.8707996892901204,
        -1.35045598576609,
        -0.024629071143672236,
        -0.10127493103517042,
        -0.20812601148888915,
        -0.6469106944849878,
        -2.469848110109593,
        -0.6023321347792314
      ],
      [
        -0.5854686225788744,
        0.03568842111131908,
        -0.6657097221875303,
        -0.21891222169920438,
        -0.21501584088575126,
        -0.17621715418448483,
        -0.7914149949092573,
        -0.33536948169207015,
        -1.3981420222203893,
        -0.048998968273373245,
        -0.5295944413469618,
        -0.17738086191796706,
        -0.8709777300112826,
        -1.3505709414124059,
        -0.09433242178824788,
        0.069259112798187,
        -0.2653050978814265,
        -0.6469223288176943,
        -2.5069486620407466,
        -0.6007309482963126
      ],
      [
        -0.5854564750058684,
        0.03580774477868143,
        -0.6657132010883705,
        -0.2188529058516832,
        -0.21503241433368486,
        -0.17627193832811214,
        -0.790254410668802,
        -0.3349890343426623,
        -1.3981414126537273,
        0.03148881846827517,
        -0.5296063328063438,
        -0.17740842332007023,
        -0.8726280291252425,
        -1.3503074388238108,
        -0.12337458507254019,
        0.0877997137013086,
        -0.22288302345328043,
        -0.646847781450196,
        -2.531452355854684,
        -0.600819588581353
      ]
    ],
    "reward_spread_mean_over_anchors": 0.033516190391664195,
    "reward_spread_max_over_anchors": 0.23126712172804934,
    "adv_mean_per_sample": [
      -0.07071067811865475,
      -0.17677669529663687,
      0.14142135623730945,
      0.0,
      0.1060660171779821
    ],
    "adv_std_per_sample": [
      0.9192388155425119,
      0.9185586535436918,
      0.9899494936611665,
      1.0488088481701514,
      1.0787724505195708
    ],
    "anchor_spread_std": [
      8.07256914341162e-06,
      0.00011212928000084012,
      1.231187106976357e-05,
      2.410935766985391e-05,
      6.648541653870813e-06,
      2.781915870145252e-05,
      0.0005734159061474765,
      0.00043268118658017115,
      4.705116100716201e-05,
      0.03465391280660005,
      8.084891728478946e-06,
      1.630151827307769e-05,
      0.0006465231294067241,
      0.0001371649138994291,
      0.08008645259625458,
      0.06688459428258156,
      0.024541838338946197,
      5.2093427562099885e-05,
      0.032740827462202214,
      0.0006213845293631038
    ],
    "anchor_weights": [
      1.0,
      1.0,
      1.0,
      1.0,
      1.0,
      1.0,
      1.0,
      1.0,
      1.0,
      1.0,
      1.0,
      1.0,
      1.0,
      1.0,
      1.0,
      1.0,
      1.0,
      1.0,
      1.0,
      1.0
    ]
  },
  {
    "step": 4,
    "n_samples": 5,
    "n_anchors": 20,
    "reward_mean_per_sample": [
      -0.5642807231698981,
      -0.5634224943611994,
      -0.565272705578663,
      -0.564493031642495,
      -0.5745543476937175
    ],
    "reward_std_per_sample": [
      0.6044474497785052,
      0.6128957068903624,
      0.5865964539880868,
      0.6120579260239217,
      0.572910065658958
    ],
    "reward_min_per_sample": [
      -2.520194437675134,
      -2.5433952243837576,
      -2.434806565785426,
      -2.5534037630263233,
      -2.3978947053811934
    ],
    "reward_max_per_sample": [
      0.03535688924497939,
      0.19776884105835105,
      0.037984793477327194,
      0.10174921220509657,
      0.03573019812387803
    ],
    "reward_per_sample_anchor": [
      [
        -0.5854299861336436,
        0.03535688924497939,
        -0.6656647144606158,
        -0.21892169073967038,
        -0.2150249788185002,
        -0.17625298675587028,
        -0.7907037731048048,
        -0.3353569451920746,
        -1.3980946805849603,
        -0.035457937392749855,
        -0.5295937842517761,
        -0.17737562341177449,
        -0.8719730402281167,
        -1.350788306267892,
        -0.021119180777711126,
        0.02094526211477815,
        -0.20231239837211634,
        -0.6468498816195594,
        -2.520194437675134,
        -0.6008022689707486
      ],
      [
        -0.5854524051747434,
        0.03544048428553641,
        -0.6657120139389014,
        -0.21888562371343,
        -0.21502344717447403,
        -0.17619203384618515,
        -0.7919098100641585,
        -0.33505328796692013,
        -1.3980044430632452,
        0.19776884105835105,
        -0.5296013445249194,
        -0.1773741704395711,
        -0.8713819866485624,
        -1.350458221312619,
        -0.036641821964851815,
        -0.12551327903057266,
        -0.23121884142802818,
        -0.6471160467628134,
        -2.5433952243837576,
        -0.6027252111301205
      ],
      [
        -0.5854461638684496,
        0.03566377877908626,
        -0.6657087826430959,
        -0.2188940598049564,
        -0.21500699130630146,
        -0.1761804075005011,
        -0.790232784408885,
        -0.33517643353879234,
        -1.3982499812640021,
        0.037984793477327194,
        -0.5295834946074609,
        -0.17742945768527835,
        -0.8721895702045145,
        -1.3504779956346122,
        -0.03826033848608469,
        -0.13882106682893153,
        -0.2050162460572127,
        -0.6469445156909872,
        -2.434806565785426,
        -0.6006778285141824
      ],
      [
        -0.5854555650063831,
        0.03551632470205002,
        -0.6657084430802185,
        -0.2189032005417569,
        -0.21501884830756174,
        -0.1762710860195686,
        -0.7914465421963792,
        -0.33488003998749766,
        -1.3980709903157118,
        -0.03508012492383417,
        -0.5295917643975439,
        -0.17741974779230413,
        -0.8717432464933212,
        -1.3506353234104833,
        0.10174921220509657,
        -0.055888203548775967,
        -0.21817453911644302,
        -0.6468718929219701,
        -2.5534037630263233,
        -0.6025628486709711
      ],
      [
        -0.5854713077569982,
        0.03573019812387803,
        -0.6657184087847496,
        -0.21891519770909956,
        -0.2150055249668572,
        -0.17621237208371415,
        -0.790802966350926,
        -0.3353468972369146,
        -1.3980089424236826,
        -0.009273452373832477,
        -0.529589991456215,
        -0.17741101795295355,
        -0.8724259035776286,
        -1.3504381016398437,
        -0.04442751768393171,
        -0.29240738093439844,
        -0.21960940313403582,
        -0.6470192185821586,
        -2.3978947053811934,
        -0.6008388419690938
      ]
    ],
    "reward_spread_mean_over_anchors": 0.04419832259268826,
    "reward_spread_max_over_anchors": 0.3133526430491766,
    "adv_mean_per_sample": [
      -0.035355339059327376,
      -0.035355339059327376,
      0.282842712474619,
      -0.07071067811865475,
      -0.1414213562373095
    ],
    "adv_std_per_sample": [
      1.128605334029571,
      1.0833974340010224,
      0.8774964387392121,
      0.8031189202104505,
      1.0148891565092217
    ],
    "anchor_spread_std": [
      1.341754757537138e-05,
      0.00013818695792307224,
      1.921530379709835e-05,
      1.323234769656114e-05,
      8.18616582892622e-06,
      3.489977481301388e-05,
      0.0005900013958069823,
      0.00018095087748300947,
      8.919609509311004e-05,
      0.0874821667409552,
      5.777653416161164e-06,
      2.289297214578778e-05,
      0.0003604253809992708,
      0.00013396966340119761,
      0.05528050360760538,
      0.1039913402271723,
      0.010532531992053371,
      9.796491966883437e-05,
      0.06214897111706262,
      0.0009196112576236236
    ],
    "anchor_weights": [
      1.0,
      1.0,
      1.0,
      1.0,
      1.0,
      1.0,
      1.0,
      1.0,
      1.0,
      1.0,
      1.0,
      1.0,
      1.0,
      1.0,
      1.0,
      1.0,
      1.0,
      1.0,
      1.0,
      1.0
    ]
  }
]