[
  {
    "step": 1,
    "n_samples": 5,
    "n_anchors": 20,
    "reward_mean_per_sample": [
      -0.5444608372995177,
      -0.5473863760346601,
      -0.5777587096448895,
      -0.5448029864508307,
      -0.5599987075812244
    ],
    "reward_std_per_sample": [
      0.6094638690701688,
      0.6269659641673482,
      0.5940633435160501,
      0.6035426342210873,
      0.6035293507751779
    ],
    "reward_min_per_sample": [
      -2.4459837443611696,
      -2.547646298501887,
      -2.513759431301843,
      -2.4170810842153534,
      -2.4935395817635477
    ],
    "reward_max_per_sample": [
      0.1654929808471715,
      0.1392711286631644,
      0.04467343474397334,
      0.18467123913721195,
      0.10537536306691667
    ],
    "reward_per_sample_anchor": [
      [
        -0.5854267705432854,
        0.03557663122762765,
        -0.6656656076928906,
        -0.21890141185388312,
        -0.2150101551499247,
        -0.17625037832556992,
        -0.7913431648097786,
        -0.335572009815774,
        -1.398112801737447,
        0.038128098240159974,
        -0.5296011688818094,
        -0.17741697120361072,
        -0.8708946594261653,
        -1.3506126592196246,
        0.11037081233548993,
        0.1654929808471715,
        -0.22906094409215907,
        -0.646830626530474,
        -2.4459837443611696,
        -0.6021021949972359
      ],
      [
        -0.5855169748147591,
        0.03569611380936299,
        -0.6656860440310381,
        -0.21889863516482996,
        -0.21501509704305993,
        -0.17619701616842187,
        -0.7902978534727532,
        -0.33504686349678897,
        -1.39820086946829,
        0.07785522600511544,
        -0.5295731962594732,
        -0.17737369680595552,
        -0.8715117303765156,
        -1.3504339782150645,
        0.12028675268267583,
        0.1392711286631644,
        -0.21135298473276384,
        -0.64710481192568,
        -2.547646298501887,
        -0.6009806913762388
      ],
      [
        -0.5854345179863701,
        0.03539889585828546,
        -0.6657133356262381,
        -0.21886263559156086,
        -0.21503249782479875,
        -0.17621782072032843,
        -0.7913940232281517,
        -0.33602423904511447,
        -1.3979831402052623,
        0.04467343474397334,
        -0.5295920255221959,
        -0.1773816534025261,
        -0.8709977068984011,
        -1.350452409814935,
        -0.049430820246212925,
        -0.2834686584880484,
        -0.2259445615051018,
        -0.6470116386604275,
        -2.513759431301843,
        -0.6005454074325292
      ],
      [
        -0.5855533094854797,
        0.03539205589018093,
        -0.6656896665108711,
        -0.2188715800447673,
        -0.21501869209967092,
        -0.17621383499021365,
        -0.7907309214335038,
        -0.33526136953759,
        -1.3981728945299923,
        -0.0028768880158167487,
        -0.5295833241668066,
        -0.177413827586346,
        -0.8713504688908236,
        -1.3509845997281944,
        0.09961568348827964,
        0.18467123913721195,
        -0.23326546212455912,
        -0.646909215648904,
        -2.4170810842153534,
        -0.6007615685233931
      ],
      [
        -0.585557037381144,
        0.03567413688001277,
        -0.6656992765331509,
        -0.21889762037121815,
        -0.21500413749029407,
        -0.17624653551035777,
        -0.7902941528483873,
        -0.3349801802898553,
        -1.398195070407824,
        -0.03695741339131188,
        -0.5295903999875793,
        -0.17740537182146435,
        -0.8713694494508588,
        -1.3505153739763764,
        -0.031857808732788886,
        0.10537536306691667,
        -0.2175629721581365,
        -0.6468250602250128,
        -2.4935395817635477,
        -0.6005262092321081
      ]
    ],
    "reward_spread_mean_over_anchors": 0.045560334421029317,
    "reward_spread_max_over_anchors": 0.46813989762526037,
    "adv_mean_per_sample": [
      -0.0707106781186547,
      0.31819805153394637,
      -0.21213203435596423,
      -0.10606601717798211,
      0.07071067811865475
    ],
    "adv_std_per_sample": [
      1.0222524150130436,
      1.1062323444918791,
      1.002496882788171,
      0.8147085368400162,
      0.946044396421225
    ],
    "anchor_spread_std": [
      5.6582347790057815e-05,
      0.00013055085758544138,
      1.5736972206069677e-05,
      1.6033260371410563e-05,
      9.539970386346474e-06,
      2.033255189413933e-05,
      0.0004816582083660999,
      0.0003838680981519441,
      8.113752727534894e-05,
      0.039913450117819084,
      9.342330870327255e-06,
      1.7447961020032763e-05,
      0.00023647801164697753,
      0.00020227934879151895,
      0.07434186074964692,
      0.17490541056143316,
      0.007937794491071805,
      0.00010802491407470549,
      0.046797572071131915,
      0.0005834002916526536
    ],
    "anchor_weights": [
      1.0,
      1.0,
      1.0,
      1.0,
      1.0,
      1.0,
      1.0,
      1.0,
      1.0,
      1.0,
      1.0,
      1.0,
      1.0,
      1.0,
      1.0,
      1.0,
      1.0,
      1.0,
      1.0,
      1.0
    ]
  },
  {
    "step": 2,
    "n_samples": 5,
    "n_anchors": 20,
    "reward_mean_per_sample": [
      -0.5593943797807621,
      -0.5627640303222419,
      -0.5532929819636394,
      -0.5603357113104005,
      -0.5524938188013812
    ],
    "reward_std_per_sample": [
      0.6029272742952698,
      0.5957737626896438,
      0.6123802800903629,
      0.6167375885957057,
      0.6119699381754536
    ],
    "reward_min_per_sample": [
      -2.4845600304001008,
      -2.4699617355506067,
      -2.4948406067291837,
      -2.5569036137755807,
      -2.4959665436305483
    ],
    "reward_max_per_sample": [
      0.09877001318293308,
      0.035508269808551374,
      0.21152428669371964,
      0.10230179310640393,
      0.17140560296800317
    ],
    "reward_per_sample_anchor": [
      [
        -0.5855101862965666,
        0.03574081068557727,
        -0.6657253131746904,
        -0.2188862745625821,
        -0.2150086774925223,
        -0.17620487543848976,
        -0.7907323421983082,
        -0.334960777944477,
        -1.398074451536858,
        0.06783436454219134,
        -0.5296118129820404,
        -0.1773965368733988,
        -0.870914461252601,
        -1.3504390810459022,
        -0.13396055272402152,
        0.09877001318293308,
        -0.20918408137717115,
        -0.646965131927874,
        -2.4845600304001008,
        -0.6020981967983408
      ],
      [
        -0.5854866749286446,
        0.035508269808551374,
        -0.6657179757389136,
        -0.21888222432717613,
        -0.21501938682252264,
        -0.17618750222754326,
        -0.79036769181378,
        -0.3359240766010397,
        -1.3981257106100367,
        -0.04523827362322367,
        -0.5296021208668635,
        -0.17738814135251363,
        -0.8720363143883607,
        -1.3505884091517812,
        -0.013626891436345368,
        0.022317675947779683,
        -0.221281502265295,
        -0.6468752087151415,
        -2.4699617355506067,
        -0.6007967117813827
      ],
      [
        -0.5854667372469559,
        0.03550644452006427,
        -0.6656688223985707,
        -0.2188771658059149,
        -0.21500888984336627,
        -0.17620871940258964,
        -0.7914770238673156,
        -0.3350972931571596,
        -1.3981155732478379,
        0.0426819659195417,
        -0.5296079759157221,
        -0.17740036790463917,
        -0.8721337689368013,
        -1.3504559742162954,
        -0.033633752237624645,
        0.21152428669371964,
        -0.2642202668442529,
        -0.6468580146679657,
        -2.4948406067291837,
        -0.6005013839839208
      ],
      [
        -0.5854784273444242,
        0.03570384097956964,
        -0.6656366568206417,
        -0.21889859527835467,
        -0.21502288022351465,
        -0.17630832908349492,
        -0.790321102841326,
        -0.33490664981908636,
        -1.398048279122599,
        0.10230179310640393,
        -0.5295801696351934,
        -0.1773919647475997,
        -0.8708231947482419,
        -1.3503157750495305,
        0.08717361384259774,
        -0.109298627788295,
        -0.2050237106348702,
        -0.6470781691271678,
        -2.5569036137755807,
        -0.6008573280966606
      ],
      [
        -0.5854396250190168,
        0.035727069906820744,
        -0.665753370613246,
        -0.2188471332040079,
        -0.2150235026256268,
        -0.1762062989300834,
        -0.7914358505604501,
        -0.3359807388332553,
        -1.398034115238295,
        0.17140560296800317,
        -0.5295835177716159,
        -0.177414269117502,
        -0.8709631611409954,
        -1.3503440180814374,
        -0.003615653974756043,
        0.03938091911947112,
        -0.23409059491029924,
        -0.6468602560590726,
        -2.4959665436305483,
        -0.6008313183117088
      ]
    ],
    "reward_spread_mean_over_anchors": 0.045556384973072774,
    "reward_spread_max_over_anchors": 0.3208229144820146,
    "adv_mean_per_sample": [
      -0.035355339059327376,
      -0.1060660171779821,
      -0.1767766952966369,
      0.24748737341529164,
      0.07071067811865475
    ],
    "adv_std_per_sample": [
      0.9076067430335673,
      0.8739279146474267,
      0.9714679613862723,
      1.1677970714126662,
      0.9974968671630002
    ],
    "anchor_spread_std": [
      2.3224735775936482e-05,
      0.00010674525401543969,
      4.194232400765012e-05,
      1.710874397555377e-05,
      6.588531747562999e-06,
      4.324904650816733e-05,
      0.0005022280317817832,
      0.00047674973968391834,
      3.604615688788372e-05,
      0.07118014157376293,
      1.2892468958856294e-05,
      9.008012212981261e-06,
      0.000582968245787584,
      9.620989779048602e-05,
      0.07066405238317419,
      0.10458633682557957,
      0.021299776252377844,
      8.509004850355373e-05,
      0.02973416393372502,
      0.0005555800747649354
    ],
    "anchor_weights": [
      1.0,
      1.0,
      1.0,
      1.0,
      1.0,
      1.0,
      1.0,
      1.0,
      1.0,
      1.0,
      1.0,
      1.0,
      1.0,
      1.0,
      1.0,
      1.0,
      1.0,
      1.0,
      1.0,
      1.0
    ]
  }
]